tree
version=v4
num_class=1
num_tree_per_iteration=1
label_index=0
max_feature_idx=76
objective=binary sigmoid:1
feature_names=road_lanes_num road_maxspeed_kmh road_length segment_longitude segment_latitude poi_total_100m poi_crossing_100m poi_education_100m poi_emergency_100m poi_healthcare_100m poi_other_100m poi_traffic_signal_100m poi_transit_stop_100m poi_total_250m poi_crossing_250m poi_education_250m poi_emergency_250m poi_healthcare_250m poi_other_250m poi_traffic_signal_250m poi_transit_stop_250m poi_total_500m poi_crossing_500m poi_education_500m poi_emergency_500m poi_healthcare_500m poi_other_500m poi_traffic_signal_500m poi_transit_stop_500m weather_temperature_2m weather_relative_humidity_2m weather_precipitation weather_rain weather_snowfall weather_cloud_cover weather_wind_speed_10m weather_wind_gusts_10m segment_accidents_total_prior segment_accidents_prev_24h segment_accidents_prev_7d segment_accidents_prev_30d segment_hours_since_prev_accident city_accidents_total_prior city_accidents_prev_24h city_accidents_prev_7d city_accidents_prev_30d segment_accidents_same_month_prior segment_accidents_same_hour_weekday_prior segment_accidents_same_month_hour_weekday_prior segment_accidents_holiday_prior segment_accidents_new_year_period_prior road_highway road_oneway road_lanes_missing road_maxspeed_missing road_name_missing calendar_year calendar_month calendar_day calendar_hour calendar_weekday calendar_is_weekend calendar_is_holiday calendar_holiday_name calendar_is_day_before_holiday calendar_is_day_after_holiday calendar_is_rush_hour calendar_season calendar_is_school_year calendar_is_school_summer_break calendar_is_school_winter_break calendar_is_school_spring_break calendar_is_school_autumn_break calendar_is_school_break calendar_is_new_year_period weather_weather_code segment_has_history
feature_infos=[1:7] [20:140] [5.7262201309204102:14734.80078125] [71.222373962402344:71.706939697265625] [51.016788482666016:51.264114379882812] [0:21] [0:15] [0:3] [0:2] [0:3] [0:1] [0:8] [0:7] [0:49] [0:42] [0:6] [0:3] [0:4] [0:2] [0:10] [0:13] [0:134] [0:114] [0:14] [0:5] [0:8] [0:3] [0:23] [0:22] [-41.799999237060547:37.5] [8:100] [0:5.6999998092651367] [0:5.6999998092651367] [0:1.75] [0:100] [0:55] [1.3999999761581421:104] [0:34] [0:1] [0:3] [0:7] [-1:93364] [0:6376] [0:48] [0:65] [0:98] [0:6] [0:2] [0:1] [0:3] [0:2] [0:14] [0:1] [0:1] [0:1] [0:1] [0:11] [0:11] [0:30] [0:23] [0:6] [0:1] [0:1] [0:43] [0:1] [0:1] [0:1] [0:3] [0:1] [0:1] [0:1] [0:1] [0:1] [0:1] [0:1] [0:11] [0:1]
tree_sizes=6789 6974 6989 7008 6999 6984 7027 7017 7004 7019 7038 7039 7001 7049 7037 7057 7038 7032 7048 7039 7038 7018 7044 7041 7000 7062 7004 7015 7027 6979 7069 7023 7042 6997 7066 7056 7016 7069 7025 6965 7043 6964 7006 7057 7023 7019 6971 7020 7035 7033 7081 6922 7020 7039 7041 6980 7050 7053 7015 7005 7025 6949 6953 7048 6934 7032 5326 6896 3394 7013 5803 7019 6937 6979 7025 3933 6998 4577 7020 4746 7028 3171 6891 5786 6979 6961 6973 4357 3613 6947 6711 6992 3162 4819 5658 6980 4674 6955 6985 3870 6994 6977 4238 6950 6845 5935 6708 3102 6987 6487 4147 6925 6994 6983 4666 6534 5682 6465 6740 6933 6925 6943 6995 6900 6900 5362 6972 6932 6923 6942 6971 6860 6956 7033 7007 6940 7008 7044 6951 6975 6967 6954 6133 6931 6706 6957 4972 6932 2829 6925 6961 4276 6961 6960 6920 6995 6957 6955 4767 3834 6956 4426 6456 6858 4870 6939 6925 4520 6990 6966 6925 6970 6972 4334 7002 6975 5587 3119 7016 6974 6964 6481 6943 5913 6944 6996 6112 6603 6983 4758 6217 4895 4742 6863 6960 6933 6903 6961 6959 6583 6549 6971 6963 7024 6934 6938 6952 6841 5580 6931 6949 6779 6476 6985 6891 6919 6911 6940 7001 5775 6948 6149 6853 6966 6977 6995 6981 6956 6947 6986 5929 4000 6933 6448 6994 6902 6944 6923 4222 6909 6999 3737 6390 6944 6931 6473 6247 7003 6957 6949 6928 6907 6930 5995 6957 6988 6923 6933 4440 6009 6933 6039 6454 6973 6457 6347 6971 5023 6933 6917 7009 6929 6935 6956 6174 6963 6258 6924 6466 7005 7015 7006 4981 6985 5441 6941 5299 6974 5226 6950 5699 6137 4974 6095 6991 6932 6929 6974 6991 7011 6983 6943 6962 6965 6881 6246 6997 4893 6988 6996 6923 6978 6972 6933 6992 6968 6067 5403 5955 6051 6966 6909 6977 6061 6944 6929 6952 5985 6963 6964 6963 6982 6964 7017 7036 6913 6950 6793 6952 6903 7049 6935 6171 5842 5710 6920 6926 3552 5915 5617 7007 6957 6924 6567 6904 6975 6931 6934 6918 6995 6985 6930 6911 6974 6993 6950 6896 6947 7011 6905 6993 6934 6469 6785 4900 6970 6950 6997 6886 6933 6899 5199 5694 6894 5773 4434 6983 5003 6936 6686 7016 6963 6647 6957 5086 6166 6989 5604 6968 5371 6242 3776 6897 6956 6969 4026 5441 6964 6905 3694 5959 6808 5637 6932 6910 6920 6958 6944 6958 6976 6945 5891 6980 6941 6980 6977 6943 7017 7010 6962 6983 6971 6822 6923 6744 6919 7008 6953 6944 6440 6984 6940 6947 6981 6951 6950 6944 6309 6667 6941 6925 6966 6969 6387 6970 6942 6994 5542 6372 6850 6959 6980 6959 4425 6957 6084 7001 7011 5879 6943 7002 7012 6971 6248 6976 3618 6569 6955 6948 6949 6807 6937 6569 6926 6958 6938 6396 6960 6854 5900 6976 5842 6190 6926 3283 5266 5510 7009 6905 1755

Tree=0
num_leaves=63
num_cat=0
split_feature=37 41 4 37 37 2 2 21 2 2 3 37 4 3 4 2 28 4 51 41 21 51 27 51 2 5 41 4 19 28 51 21 41 20 3 41 40 2 4 12 5 21 3 41 2 13 40 14 19 21 41 11 14 4 27 3 39 5 20 2 0 2
split_gain=35130.1 9876.73 3842.31 3166.17 2617.79 2031.09 1719.7 1686.62 1567.37 1364.22 736.789 734.718 724.007 733.315 700.627 660.553 560.73 535.5 531.035 617.36 510.607 485.408 510.305 463.928 449.985 444.519 418.436 416.158 417.82 408.801 464.566 398.276 395.458 394.787 383.192 365.084 359.065 345.002 317.614 311.203 310.204 304.367 301.715 301.597 345.782 299.353 295.122 292.12 290.414 285.523 278.726 267.667 415.356 371.349 353.267 267.047 266.712 262.624 247.587 238.364 238.295 236.74
threshold=1.5000000000000002 4512.5000000000009 51.149406433105476 6.5000000000000009 6.5000000000000009 117.14731979370119 189.12998199462893 20.500000000000004 220.29631042480472 258.10591125488287 71.400920867919936 3.5000000000000004 51.104833602905281 71.405735015869155 51.127035140991218 256.29577636718756 10.500000000000002 51.162460327148445 1.5000000000000002 25217.500000000004 56.500000000000007 1.0000000180025095e-35 11.500000000000002 1.5000000000000002 908.11419677734386 1.0000000180025095e-35 38759.500000000007 51.173398971557624 5.5000000000000009 5.5000000000000009 1.5000000000000002 87.500000000000014 13713.500000000002 5.5000000000000009 71.423564910888686 95.500000000000014 1.5000000000000002 607.46075439453136 51.177825927734382 2.5000000000000004 1.5000000000000002 1.0000000180025095e-35 71.456195831298842 17776.500000000004 827.51177978515636 21.500000000000004 1.0000000180025095e-35 12.500000000000002 1.0000000180025095e-35 19.500000000000004 2153.5000000000005 1.5000000000000002 6.5000000000000009 51.165584564208991 2.5000000000000004 71.45886611938478 1.0000000180025095e-35 1.0000000180025095e-35 3.5000000000000004 24.718860626220707 2.5000000000000004 943.83038330078136
decision_type=2 2 2 2 2 2 2 2 2 2 2 2 2 2 2 2 2 2 2 2 2 2 2 2 2 2 2 2 2 2 2 2 2 2 2 2 2 2 2 2 2 2 2 2 2 2 2 2 2 2 2 2 2 2 2 2 2 2 2 2 2 2
left_child=2 4 6 8 9 23 10 18 26 36 56 33 43 61 35 17 40 45 37 46 24 22 50 49 -15 -13 29 28 -23 -3 -31 51 -25 39 -22 -12 55 41 -5 -10 -17 -7 -19 -8 -45 -9 -20 -27 -39 -4 -11 52 53 -6 -54 59 -1 -40 -57 -2 -29 -14
right_child=1 3 5 38 31 7 12 15 11 21 14 25 13 20 -16 16 -18 42 19 -21 34 27 -24 32 -26 47 -28 60 -30 30 -32 -33 -34 -35 -36 -37 -38 48 57 -41 -42 -43 -44 44 -46 -47 -48 -49 -50 -51 -52 -53 54 -55 -56 58 -58 -59 -60 -61 -62 -63
leaf_value=-1.6540754649713856 -1.509475657095003 -1.6167170665987067 -1.6439855648862425 -1.5377861121586156 -1.5578724230373113 -1.6525079715040232 -1.6405049478101601 -1.6226731404168202 -1.5832908256401685 -1.5283473270486729 -1.6473718936171335 -1.5736003910433902 -1.6384059264619377 -1.6188348016864356 -1.6271735742863991 -1.5899053620695913 -1.5136415763790076 -1.5888550145196059 -1.6007651253090971 -1.6443482161483707 -1.5650818272582885 -1.5062371424586007 -1.4381021852970044 -1.6092988250038707 -1.5638653171212333 -1.5226548258630763 -1.6275601460394638 -1.5646804117433395 -1.623024691004435 -1.5981364772118514 -1.5623632546380688 -1.6047374543399149 -1.6390153780493664 -1.5173448974596246 -1.6037368725932506 -1.6236868846694423 -1.4388496896500829 -1.6051907001343246 -1.5463999442339864 -1.6304544883643479 -1.5512808867980974 -1.623620142575871 -1.4870739447132593 -1.6182530804186899 -1.5085107686682324 -1.5275148429402661 -1.502132315537692 -1.5695642817229369 -1.4819170308535572 -1.6263631955297908 -1.5800077088945594 -1.4356814222460847 -1.6212489376988324 -1.4832691249785159 -1.4493639819788595 -1.612679505096583 -1.4659596607418475 -1.4735841874248135 -1.550507661752685 -1.5579203377135193 -1.4502482977507478 -1.5992222736204447
leaf_weight=7513.3336915969849 289.44445824623108 2117.5001009702682 3212.7779309749603 1708.6111925840378 255.8333455324173 1146.8056102395058 5379.8613676428795 1797.6389746069908 5056.1113522052765 634.30558580160141 11048.194971263409 1513.1945165991783 3794.3057364821434 8561.6670749187469 12210.972804486752 1492.5000711679459 420.55557560920715 5494.3058175444603 6360.6947477459908 869.86115258932114 871.80559712648392 1706.3889702558517 110.41667193174362 5746.6669406890869 384.30557388067245 1187.9167233109474 1406.2500670552254 55.138891518115997 79.027781546115875 4561.527995288372 1129.7222760915756 55.277780413627625 1385.4167327284813 210.00001001358032 2392.2223362922668 1917.3612025380135 58.750002801418304 1154.5833883881569 192.5000091791153 372.08335107564926 799.86114925146103 4427.777988910675 69.027781069278717 493.19446796178818 78.888892650604248 81.666670560836792 71.805558979511261 478.61113393306732 44.861113250255585 8136.6670546531677 455.69446617364883 528.88891410827637 30.277779221534729 538.05558121204376 859.02781873941422 403.75001925230026 14.166667342185972 431.80557614564896 259.86112350225449 2282.0834421515465 509.16669094562531 426.52779811620712
leaf_count=54096 2084 15246 23132 12302 1842 8257 38735 12943 36404 4567 79547 10895 27319 61644 87919 10746 3028 39559 45797 6263 6277 12286 795 41376 2767 8553 10125 397 569 32843 8134 398 9975 1512 17224 13805 423 8313 1386 2679 5759 31880 497 3551 568 588 517 3446 323 58584 3281 3808 218 3874 6185 2907 102 3109 1871 16431 3666 3071
internal_value=-1.60944 -1.56159 -1.62386 -1.58097 -1.51834 -1.6126 -1.63259 -1.60308 -1.58807 -1.53386 -1.63989 -1.57301 -1.6219 -1.61649 -1.63578 -1.58756 -1.56645 -1.59527 -1.61429 -1.60493 -1.61027 -1.51234 -1.53878 -1.62509 -1.61645 -1.55379 -1.6025 -1.49901 -1.51143 -1.59797 -1.591 -1.47174 -1.61509 -1.58388 -1.59336 -1.64388 -1.55717 -1.62437 -1.52621 -1.58654 -1.57633 -1.6296 -1.58748 -1.63684 -1.60238 -1.61833 -1.59958 -1.53597 -1.60007 -1.63136 -1.54971 -1.46843 -1.47921 -1.50684 -1.45525 -1.55958 -1.65363 -1.49536 -1.58808 -1.55228 -1.46094 -1.63444
internal_weight=127278 29477.2 97800.3 20365.8 9111.39 42713.5 55086.8 24231.9 18032.9 6844.03 32704 8817.92 22382.8 16430.8 25176.5 10155.6 2712.92 7442.64 14076.4 7302.36 12210 3550.14 1200.42 18481.5 8945.97 3179.72 9215 2349.72 1785.42 7808.75 5691.25 2267.36 7132.08 5638.19 3264.03 12965.6 3293.89 6774.03 2332.92 5428.19 2292.36 5574.58 5563.33 5951.94 572.083 1879.31 6432.5 1666.53 1199.44 11349.4 1090 2212.08 1683.19 793.889 889.306 3235.14 7527.5 624.306 663.611 2571.53 564.306 4220.83
internal_count=916398 212236 704162 146634 65602 307537 396625 174470 129837 49277 235469 63489 161156 118302 181271 73120 19533 53587 101350 52577 87912 25561 8643 133067 64411 22894 66348 16918 12855 56223 40977 16325 51351 40595 23501 93352 23716 48773 16797 39083 16505 40137 40056 42854 4119 13531 46314 11999 8636 81716 7848 15927 12119 5716 6403 23293 54198 4495 4778 18515 4063 30390
is_linear=0
shrinkage=1


Tree=1
num_leaves=63
num_cat=0
split_feature=37 41 4 42 37 2 42 37 2 2 21 37 3 4 3 4 51 42 41 37 22 2 3 4 40 2 42 51 51 42 41 2 3 41 2 55 20 3 5 28 5 42 37 5 42 0 2 19 5 21 28 12 20 3 39 37 42 2 19 24 15 3
split_gain=30969.3 7956.63 3565.91 3318.62 2611.39 1848.63 1949.43 1675.97 1624.04 1353.36 1223.66 1149.4 713.03 674.874 677.167 667.761 652.164 636.823 626.774 611.903 495.373 492.732 461.203 629.903 453.37 448.963 433.445 488.222 417.86 399.955 367.546 350.947 523.687 341.567 326.258 325.442 325.273 324.819 321.595 312.359 310.604 307.753 303.356 293.382 288.672 342.331 282.998 274.382 269.988 264.412 262.157 251.104 240.693 240.275 239.837 237.966 231.182 230.955 230.51 226.469 225.682 225.238
threshold=1.5000000000000002 4512.5000000000009 51.149406433105476 2110.0000000000005 6.5000000000000009 117.14731979370119 805.50000000000011 6.5000000000000009 189.12998199462893 220.29631042480472 20.500000000000004 5.5000000000000009 71.400920867919936 51.104833602905281 71.405735015869155 51.127035140991218 1.5000000000000002 3718.0000000000005 18400.500000000004 3.5000000000000004 5.5000000000000009 223.8011169433594 71.433296203613295 51.131883621215827 1.0000000180025095e-35 194.0108337402344 5467.5000000000009 1.5000000000000002 1.5000000000000002 2269.5000000000005 34912.000000000007 502.23588562011724 71.503467559814467 24662.000000000004 286.68200683593756 1.0000000180025095e-35 5.5000000000000009 71.432331085205092 15.500000000000002 12.500000000000002 1.0000000180025095e-35 3136.5000000000005 2.5000000000000004 1.0000000180025095e-35 4666.5000000000009 2.5000000000000004 1254.7683105468752 2.5000000000000004 1.0000000180025095e-35 42.500000000000007 12.500000000000002 1.5000000000000002 4.5000000000000009 71.644699096679702 1.0000000180025095e-35 11.500000000000002 6001.5000000000009 117.14731979370119 3.5000000000000004 1.5000000000000002 1.5000000000000002 71.456195831298842
decision_type=2 2 2 2 2 2 2 2 2 2 2 2 2 2 2 2 2 2 2 2 2 2 2 2 2 2 2 2 2 2 2 2 2 2 2 2 2 2 2 2 2 2 2 2 2 2 2 2 2 2 2 2 2 2 2 2 2 2 2 2 2 2
left_child=2 3 8 11 9 24 10 26 12 17 31 21 54 41 -15 29 20 38 -18 36 -8 35 34 -24 28 49 27 -5 50 59 43 -7 -33 -30 -16 -2 46 -31 39 -3 -19 -10 -29 -21 45 -9 -11 55 -20 -12 -4 61 -27 60 -1 -6 -46 -47 -37 -14 -28 -23
right_child=1 4 5 7 47 6 16 44 13 19 25 -13 15 14 22 -17 18 40 48 30 -22 51 23 -25 -26 52 53 42 33 37 -32 32 -34 -35 -36 58 -38 -39 -40 -41 -42 -43 -44 -45 56 57 -48 -49 -50 -51 -52 -53 -54 -55 -56 -57 -58 -59 -60 -61 -62 -63
leaf_value=-0.043733243439338619 0.19509580789088357 0.017053338262600925 -0.023265150063185722 0.043967428337775866 0.074658321442402018 -0.003477171006157357 -0.021527294988268456 -0.051262415993983762 -0.037735872788042989 0.018902717648700249 -0.0033914075450284516 0.18486083979425413 -0.047486846951766498 -0.024165589165328377 0.0029256394214566845 -0.01705559860941416 0.013716037626878267 -0.032324359509310813 -0.030957722448967686 0.038767542582285708 0.0017280635145276923 0.14906166389616043 -0.018039827120292881 0.0081049313256375474 0.065029674672881704 0.068731881688560925 -0.0067285737621053145 0.046007834751229812 -0.0018493537462586332 -0.01598073126639294 -0.0013722346987515514 0.066201200461275339 -0.047446754837521553 -0.033672775927311875 0.037099101207719622 0.079831499101813252 0.082459450058796596 -0.0360322492464299 0.10824152613503718 0.072773622323204598 0.0019144812613468487 -0.014748009063478546 0.10839571662318073 0.070500158498058338 0.053422129229172811 0.00064730613917772419 0.072981578260933225 0.049044119224841892 0.0062818206804055301 0.05157612105738707 0.01990705244105757 0.063750945404949355 0.1336188182497397 0.13499742524428879 0.12868089419197506 0.11897065073739142 0.11174325658563325 0.12462593041301302 0.0097306519399780415 0.016432950583849547 0.061710004637729125 0.10257103235535164
leaf_weight=7291.0446202754974 47.777212217450142 2393.7705392539501 10715.99314545095 3182.8100020736456 1289.0208059996367 1668.5342700481415 4885.1206509619951 27.103724837303162 2988.5130191296339 5261.9856086522341 338.63496431708336 661.61465837061405 4365.1576986014843 4150.7382993549109 1752.3708674162626 12066.917357474566 8366.4014537930489 743.86015242338181 1291.8265704810619 1353.80698312819 4305.3969760835171 839.88909706473351 5097.009350001812 4196.4887367784977 170.33116963505745 1345.1579724401236 617.98383110761642 315.40387989580631 6068.9473565667868 3735.4286725223064 304.76430709660053 456.79570515453815 125.95654688775539 974.36544686555862 1157.3140977025032 518.56915332376957 223.02875447273254 4427.9480430185795 110.82992577552795 277.03630262613297 5732.3558970242739 2854.9253279268742 559.22345264256001 1639.6571719348431 468.2129991799593 38.876948490738869 249.42562714219093 750.85971920192242 776.79883575439453 610.12234541773796 359.92906914651394 161.05282270908356 163.47928705811501 33.276525974273682 15.542728543281553 423.1724973320961 281.18043206632137 1153.6016040891409 153.06651172041893 140.8080660700798 144.40240901708603 463.26627451181412
leaf_count=54096 328 17112 78305 21942 8800 12061 35563 187 21940 37318 2417 4327 32220 30390 12565 87919 59687 5369 9363 9519 30714 5621 36790 30334 1237 9464 4269 2169 43748 27468 2131 3259 904 7156 8223 3605 1512 32628 792 1970 41105 20914 3816 11244 3113 264 1765 5150 5558 4338 2621 1095 1142 224 102 2847 1879 7573 1067 1036 989 3134
internal_value=-2.23198e-05 0.0439826 -0.013844 0.0814396 0.0265192 -0.00302133 0.00600571 0.0624409 -0.0223477 0.0199983 0.0348793 0.126804 -0.0295484 -0.0119488 -0.00673334 -0.0254848 -0.000928943 0.00655814 0.00762324 0.0337624 -0.0106381 0.108831 -0.000796543 -0.00623612 -0.0150301 0.0592395 0.0465728 0.0531849 -0.0158005 -0.0335033 0.0509202 0.00821651 0.0414426 -0.00627254 0.0165583 0.0740351 0.0238581 -0.0268724 0.0265443 0.0229583 -0.00204011 -0.0265269 0.0862871 0.0562375 0.101335 0.11659 0.0214141 0.0748038 -0.0169923 0.0320419 -0.0218539 0.125617 0.0761813 0.0127333 -0.0432787 0.0859247 0.0759004 0.120604 0.0640454 -0.0454734 0.00655189 0.13299
internal_weight=127285 30420.9 96864 9667.31 20753.6 42623.8 24334.2 6822.08 54240.2 18290.5 4708.68 2845.24 32042.8 22197.4 16353.9 24736.3 19625.5 9257.85 10435 9032.67 9190.52 2183.62 12203.2 9293.5 18289.6 2457.39 4853.1 4057.44 18119.2 12669.3 3298.23 2251.29 582.752 7043.31 2909.68 719.413 5734.44 8163.38 2781.64 2670.81 6476.22 5843.44 874.627 2993.46 1968.98 1219.58 5511.41 2463.05 2068.63 948.757 11075.9 1464.21 1508.64 795.663 7306.59 1712.19 749.393 1192.48 671.636 4505.97 762.386 1303.16
internal_count=916398 212236 704162 65602 146634 307537 174470 46425 396625 129837 33585 19177 235469 161156 118302 181271 140885 66348 74608 63489 66277 14850 87912 67124 133067 17361 33409 27927 131830 93352 22894 16224 4163 50904 20788 5000 40595 60096 19874 19082 46474 42854 5985 20763 13016 8024 39083 16797 14921 6755 80926 9850 10606 5482 54198 11647 4992 7837 4672 33256 5258 8755
is_linear=0
shrinkage=0.05


Tree=2
num_leaves=63
num_cat=0
split_feature=37 41 4 42 37 2 42 2 37 2 21 37 3 39 4 51 4 3 41 41 2 42 5 21 51 2 42 37 22 42 41 28 2 3 51 4 41 20 3 2 2 3 5 2 42 51 21 5 19 13 3 2 3 12 14 23 42 2 40 4 13 21
split_gain=27395.9 6535.1 3306.62 2540.36 2169.98 1681.52 1712.07 1532.37 1349.6 1189.37 1106 867.516 689.775 663.868 636.115 611.283 608.759 783.719 559.781 541.538 451.623 433.386 499.013 413.355 401.485 399.906 396.57 483.192 393.724 388.951 386.765 386.672 384.156 514.832 381.598 374.64 343.623 314.931 309.876 303.339 293.911 405.843 291.927 286.125 283.587 279.682 272.763 250.894 243.127 239.72 239.437 230.269 228.684 227.25 223.351 219.938 230.448 219.719 232.582 219.413 219.115 218.692
threshold=1.5000000000000002 4802.5000000000009 51.149406433105476 2110.0000000000005 6.5000000000000009 117.14731979370119 883.50000000000011 189.12998199462893 7.5000000000000009 155.33794403076175 20.500000000000004 5.5000000000000009 71.400920867919936 1.0000000180025095e-35 51.127035140991218 1.5000000000000002 51.114677429199226 71.405735015869155 18400.500000000004 11513.500000000002 157.47502136230472 4093.5000000000005 15.500000000000002 56.500000000000007 1.5000000000000002 109.94471740722658 3211.5000000000005 2.5000000000000004 5.5000000000000009 2269.5000000000005 2726.5000000000005 12.500000000000002 463.55793762207037 71.349662780761733 1.5000000000000002 51.165584564208991 13713.500000000002 5.5000000000000009 71.432331085205092 463.55793762207037 520.69787597656261 71.503467559814467 1.0000000180025095e-35 827.51177978515636 6135.5000000000009 1.5000000000000002 19.500000000000004 1.0000000180025095e-35 2.5000000000000004 9.5000000000000018 71.44748687744142 141.44416046142581 71.34610748291017 2.5000000000000004 19.500000000000004 1.0000000180025095e-35 4617.5000000000009 96.285667419433608 1.0000000180025095e-35 51.147926330566413 1.0000000180025095e-35 48.500000000000007
decision_type=2 2 2 2 2 2 2 2 2 2 2 2 2 2 2 2 2 2 2 2 2 2 2 2 2 2 2 2 2 2 2 2 2 2 2 2 2 2 2 2 2 2 2 2 2 2 2 2 2 2 2 2 2 2 2 2 2 2 2 2 2 2
left_child=2 3 7 11 9 24 10 12 26 21 40 25 -1 16 29 28 30 -18 61 37 -12 22 31 -19 46 -2 34 53 -8 -14 50 -3 44 -34 52 -22 -26 45 -31 -29 60 -42 -23 -32 -21 -11 -4 -20 -6 -38 -9 -30 -5 -28 -27 -10 -57 -48 -59 -58 -7 -17
right_child=1 4 5 8 48 6 15 13 55 19 20 -13 14 -15 -16 18 17 23 47 32 35 42 -24 -25 36 54 27 39 51 38 43 -33 33 -35 -36 -37 49 -39 -40 -41 41 -43 -44 -45 -46 -47 57 -49 -50 -51 -52 -53 -54 -55 -56 56 59 58 -60 -61 -62 -63
leaf_value=-0.042384251397372952 0.030254357929641058 0.0043086974097002566 -0.032992741277848917 -0.054855118836734822 0.078049443380956374 -0.031163021088816602 -0.020704001305783142 -0.02285218931622076 0.11885480042550337 0.030936855827540796 0.0075588802036105004 0.15754699751150381 -0.044600553971139441 0.13225512217203325 -0.016395332627225624 0.0096059677881000886 -0.025480637327766571 -0.0047255320048750007 -0.030049285075984478 0.016086886693068677 0.036799924697511859 -0.047843659765879447 0.11196854704291788 0.018011088840908154 0.00018773985179556431 0.10511908082710252 0.0014951835089945661 0.03577948451033492 0.034218792411923903 -0.015352145350803807 -0.010219071731259195 0.068017570275149694 -0.01911167327587706 0.049757867619836527 0.10858966835260675 0.078491838002075348 -0.039449396014193505 0.095348758490479718 -0.035104426084903745 0.072405270482149106 0.057218040768430949 -0.040060898936767481 -0.0043953229100971063 0.049399266440795925 -0.027242275114947374 0.062476525171792856 -0.018743798143501012 0.0059444401111047891 0.0434950099639696 0.010726621297240226 -0.045125618623058514 -0.0036954200068098314 0.055421952180500382 0.093485567346388299 0.025252936767003853 0.097942506245529443 -0.037754397722448318 0.0015699540437075481 0.13943821434258827 0.064668215452688624 0.0073235781573279066 0.03328592381707688
leaf_weight=7092.7521090209484 221.04447795450687 1896.5884032100439 3091.1207877248526 44.83328852057457 1755.3341044038534 506.778076171875 4719.4533212333918 4354.2695124745369 629.6516652405262 3002.305362612009 458.93847422301769 747.70313104987144 4368.1904522776604 75.107197165489197 11929.018047764897 7161.1179260909557 3811.0363009124994 8068.1716711521149 1265.1750899404287 5250.4832395613194 909.79270485043526 427.70745544135571 128.55270996689796 2651.8696742653847 5742.9047839790583 2078.2430717349052 1038.3115910738707 1948.6226237267256 443.49997249245644 3695.2068654745817 1140.1485154479742 267.51233249902725 321.43887312710285 1659.9525740146637 377.4008564054966 1373.3568325489759 1028.8325481712818 257.17897386848927 4320.6218929290771 806.62223316729069 489.4326403439045 133.02982285618782 3642.6614749282598 239.15919561684132 402.38416008651257 924.96495594084263 6870.3574341386557 780.04055055975914 749.78633192181587 306.85450235009193 1679.6889846324921 3734.7228215634823 1386.6965401172638 66.791243314743042 95.226493313908577 726.36404672265053 57.503673493862152 1038.5634341537952 26.523194089531898 365.89582793414593 1328.7772035598755 1125.5370455086231
leaf_count=54198 1470 13466 23132 304 11315 3679 34861 32374 3895 20721 3212 4389 33256 542 87919 50684 28391 58462 9363 36678 6191 3160 869 18811 41376 13167 7035 13031 3174 27468 8365 1833 2248 11445 2448 9290 7686 1700 32628 5292 3354 984 26104 1732 2830 6376 50745 5558 4984 2289 12479 26600 9269 447 624 4457 372 7654 185 2307 9615 7905
internal_value=-4.15877e-05 0.0405926 -0.0132876 0.0725272 0.0242297 -0.00288495 0.00567312 -0.0215686 0.0565554 0.0182075 0.031112 0.110239 -0.0286588 -0.0114518 -0.0246469 -0.00121243 -0.0119737 -0.0060217 0.00705893 0.0275876 0.0529145 0.000776967 0.0181414 0.000904713 -0.0144309 0.0951686 0.0445622 0.0354268 -0.0108156 -0.0325854 -0.0236285 0.0123226 0.0196422 0.0385653 0.0639064 0.0619951 -0.00513296 0.0420428 -0.0260141 0.0466137 0.00673172 0.0362745 -0.0090139 0.000259285 0.0129813 0.0384352 -0.0203947 -0.0163403 0.0678145 -0.0279252 -0.0290847 0.000365097 0.0517893 0.00745101 0.101686 0.0945343 0.0807585 -0.0154697 0.00563869 0.0504795 -0.00335797 0.0128404
internal_weight=127238 31277.8 95960 10590.9 20686.9 42534.8 24429.7 53425.2 7448.69 18181.7 5200.11 3142.22 31405.8 22019.5 24313 19229.5 21944.3 14531.1 10331.9 11818.7 2742.09 6363.02 2292.65 10720 18105.2 2394.51 5669.28 3860.35 8897.68 12384 7413.27 2164.1 7634.26 1981.39 1808.93 2283.15 7078.59 4184.45 8015.83 2755.24 2458.02 622.462 4070.37 1379.31 5652.87 3927.27 11026.6 2045.22 2505.12 1335.69 6033.96 4178.22 1431.53 1105.1 2173.47 1779.42 1149.76 7935.44 1065.09 423.4 1835.56 8286.65
internal_count=916398 212236 704162 68507 143729 307537 174470 396625 48857 127430 36325 19650 235469 161156 181271 138145 160614 105664 73510 81998 18693 45432 16168 77273 133067 15261 37826 25805 64635 93352 54950 15299 53201 13693 12021 15481 51351 28797 60096 18323 17632 4338 29264 10097 39508 27097 81716 14921 16299 9975 44853 29774 9573 7482 13791 11031 7136 58584 7839 2679 13294 58589
is_linear=0
shrinkage=0.05


Tree=3
num_leaves=63
num_cat=0
split_feature=37 41 4 42 37 2 42 2 37 3 3 4 3 4 37 2 21 3 3 4 2 41 2 41 2 42 51 41 2 42 42 37 51 28 4 42 41 53 7 39 2 57 2 51 2 3 42 51 5 3 41 2 51 53 37 21 26 3 3 12 45 4
split_gain=24300.6 5427.47 3063.66 1994.6 1938.05 1529.95 1527.8 1454.19 1087.94 813.052 767.731 779.82 732.451 661.863 656.039 639.071 568.047 547.249 570.292 558.632 537.348 459.98 440.497 439.066 429.038 425.852 423.742 424.413 386.433 378.469 372.861 351.946 349.448 346.452 432.52 337.554 336.587 382.979 327.483 314.928 313.552 304.496 283.242 280.975 340.171 278.089 276.569 261.911 256.076 246.582 238.309 237.592 234 232.782 232.767 333.998 248.999 229.565 229.14 228.949 219.08 217.311
threshold=1.5000000000000002 4802.5000000000009 51.149406433105476 2110.0000000000005 3.5000000000000004 96.285667419433608 805.50000000000011 240.26533508300784 7.5000000000000009 71.405735015869155 71.400920867919936 51.127952575683601 71.51529693603517 51.104833602905281 4.5000000000000009 213.81247711181643 12.500000000000002 71.409271240234389 71.433296203613295 51.119970321655281 165.12721252441409 12466.500000000002 189.12998199462893 95.500000000000014 587.34545898437511 3767.5000000000005 1.5000000000000002 18400.500000000004 23.607684135437015 2269.5000000000005 2451.5000000000005 3.5000000000000004 1.5000000000000002 11.500000000000002 51.16107368469239 3211.5000000000005 32425.500000000004 1.0000000180025095e-35 1.0000000180025095e-35 1.0000000180025095e-35 109.94471740722658 8.5000000000000018 121.68673324584962 1.0000000180025095e-35 436.00836181640631 71.582408905029311 4641.5000000000009 1.5000000000000002 1.0000000180025095e-35 71.483867645263686 24662.000000000004 539.18820190429699 1.5000000000000002 1.0000000180025095e-35 7.5000000000000009 54.500000000000007 1.0000000180025095e-35 71.281597137451186 71.442096710205092 2.5000000000000004 77.500000000000014 51.118234634399421
decision_type=2 2 2 2 2 2 2 2 2 2 2 2 2 2 2 2 2 2 2 2 2 2 2 2 2 2 2 2 2 2 2 2 2 2 2 2 2 2 2 2 2 2 2 2 2 2 2 2 2 2 2 2 2 2 2 2 2 2 2 2 2 2
left_child=2 3 7 14 20 32 9 10 31 24 39 23 22 45 40 33 26 61 51 -20 25 54 -11 29 -7 28 -8 -28 49 -12 -22 35 -4 34 -6 60 37 -18 46 57 -2 47 53 -32 -45 58 -35 -23 -27 -3 -34 -19 -33 -13 56 -56 -17 -1 -9 -37 -5 -15
right_child=1 4 5 8 15 6 16 13 -10 12 11 42 -14 17 -16 21 36 18 19 -21 30 41 -24 -25 -26 48 27 -29 -30 -31 43 52 50 38 -36 59 -38 -39 -40 -41 -42 -43 -44 44 -46 -47 -48 -49 -50 -51 -52 -53 -54 -55 55 -57 -58 -59 -60 -61 -62 -63
leaf_value=-0.017161399883329889 0.02525699504315548 0.10150240116775576 -0.022195470225902139 0.056629748966941833 -0.016612119519445603 -0.012457192257153251 -0.021817315371207166 -0.018856796596222566 0.084966575192881283 0.023126202449780666 -0.04555124789680795 -0.028979057921959001 -0.051638097888593693 0.0090081810683789003 0.13101789549944262 0.047739478057360674 -0.0018010753598922088 0.024203887937625967 -0.029191510622286129 0.0046262045674641565 0.044550719354513872 0.014656031255938727 0.058500459191778875 -0.010283888731185188 0.066184517285003144 -0.047399502664304163 0.0052519775422170765 -0.032831673751329747 0.0091061487689347749 -0.027373835680040495 -0.0028639773400459547 0.04636691011867615 -0.0017502079214266946 0.12574326409657915 0.030124556938920945 0.012839838563566767 -0.015391166226886251 0.016728371469916809 -0.021661887066525914 0.13388573795857633 0.088808178645673405 0.061951079536752177 -0.0036320027735250514 0.013587037457303556 0.046647860439606545 0.09514475584804169 0.037983176856047504 0.057974227036801523 -0.006275513284631884 -0.01592212721114308 -0.034342038534513585 0.0962459373470088 0.08217425745161816 -0.012451159050392306 0.10166526640336074 0.026193059191264381 0.099581334083526984 -0.044226108190552504 -0.043046131969836345 0.082373337529266663 -0.029263441486212551 -0.025490864916206016
leaf_weight=894.54115201532841 219.45906785130501 195.72656813263893 8943.4977180957794 1108.1219348013401 797.32530802488327 1390.8916035592556 4628.1757646203041 3548.0737895667553 1878.7501858025789 1449.3669273108244 4776.5856054127216 3582.5003171116114 203.86861990392208 541.02230684459209 1056.3033296763897 1666.9419154971838 5125.4169669896364 1600.1324668675661 1541.4988754689693 5800.7172307819128 1216.0127480775118 1431.3931284993887 2275.658635482192 2199.1790086328983 193.0450132638216 424.06303989887238 4393.0344715714455 872.53465756773949 1482.1059591621161 7247.4676733314991 1723.8716539442539 2042.9494543671608 4494.1692430078983 175.87269376218319 1289.8300676494837 1877.0752496570349 1729.0274204015732 6109.1181162297726 95.395105287432671 21.065975159406662 2070.7650336623192 813.29082916676998 4408.2615105956793 3572.9617801010609 992.49971517920494 43.373073980212212 190.70675744116306 458.88190124928951 3236.5273141264915 55.928719967603683 635.95384956896305 119.19945858418941 601.43175649642944 5280.8300865292549 725.95863960683346 188.65944860875607 271.52678993344307 6837.6365757882595 1357.0569019466639 121.67968694865704 76.559855058789253 2841.3985904157162
leaf_count=7007 1435 1299 67280 7145 5628 9876 34746 26799 11031 10178 37231 26699 1518 3991 5812 10819 36705 11194 11375 42022 8288 9401 15161 16472 1264 3214 31021 6647 10353 55317 11922 13197 32448 1150 8945 12493 12594 43231 666 134 12403 5317 32389 24768 6708 317 1251 2998 23217 396 4868 817 3722 39356 4456 1200 1733 53633 10407 774 495 21465
internal_value=-5.83095e-05 0.0375839 -0.0127511 0.065939 0.0226514 -0.00275535 0.00393094 -0.0208095 0.0518825 0.0275446 -0.0266467 -0.0227205 0.0397235 -0.00897538 0.0981832 0.0418035 -0.0017691 -0.00282116 0.00358658 -0.00248886 0.0106052 0.0513119 0.0447862 -0.0308543 -0.00269449 -0.00143234 -0.0107888 -0.00108386 0.0189479 -0.0346108 0.0192522 0.0411533 -0.0162304 0.021017 0.0122734 0.0298735 0.00511624 0.00827783 0.0599655 -0.0405466 0.0827867 0.0364174 -0.013995 0.0143293 0.0208174 -0.0244329 0.081213 0.0252971 -0.0110977 0.0756038 -0.00581995 0.0294631 0.0546506 -0.0191442 0.0653375 0.0863246 0.0552386 -0.0411081 -0.0255861 0.0172679 0.0509793 -0.0199675
internal_weight=127143 32058.6 95084.3 11053.1 21005.5 42443.8 28370.1 52640.5 7706.57 5512.83 35248.1 27494.8 3928.89 17392.5 3346.53 8105.78 22857.3 12444 9061.55 7342.22 12899.7 5556.65 3725.03 14223.2 1583.94 5394.35 9893.74 5265.57 1733.76 12024.1 7505.35 5827.82 14073.6 2549.13 2087.16 3183.44 12963.6 11234.5 461.975 7753.24 2290.22 2703.57 13271.6 6289.33 4565.46 4948.5 366.579 1890.28 3660.59 251.655 5130.12 1719.33 2644.38 8863.33 2853.09 914.618 1938.47 7732.18 4905.13 1998.75 1184.68 3382.42
internal_count=916398 212236 704162 68507 143729 307537 202941 396625 48857 37997 268238 207464 26857 128387 19650 53564 164944 90864 65408 53397 90165 35924 25339 109020 11140 38479 72414 37668 12048 92548 51686 37826 104596 17640 14573 20907 92530 79936 3067 60774 13838 17716 98444 43398 31476 37523 2401 12399 26431 1695 37316 12011 16919 66055 18208 5656 12552 60640 37206 13267 7640 25456
is_linear=0
shrinkage=0.05


Tree=4
num_leaves=63
num_cat=0
split_feature=37 41 4 37 42 2 2 42 37 21 3 4 4 41 37 51 3 3 4 2 41 2 41 40 42 42 3 4 41 51 20 41 37 51 2 51 37 42 2 42 28 27 39 41 15 2 28 74 2 3 57 4 5 2 21 3 24 3 53 3 2 42
split_gain=21608.8 4558.46 2836.89 1669.66 1628.78 1406.5 1366.18 1335.72 915.193 867.668 740.077 739.195 612.857 560.025 557.817 509.231 500.781 504.788 514.119 476.166 466.525 461.476 418.535 386.833 382.959 369.562 362.935 426.903 361.777 358.38 355.097 339.056 334.481 331.721 327.129 309.336 386.099 292.846 289.474 305.973 282.687 282.686 282.279 276.554 270.8 262.402 261.878 249.734 246.632 246.351 245.982 255.005 242.362 241.258 240.169 223.167 221.027 220.356 219.307 214.649 212.02 211.4
threshold=1.5000000000000002 4802.5000000000009 51.149406433105476 3.5000000000000004 2653.5000000000005 117.14731979370119 240.26533508300784 883.50000000000011 4.5000000000000009 20.500000000000004 71.400920867919936 51.127952575683601 51.104833602905281 34912.000000000007 5.5000000000000009 1.5000000000000002 71.409271240234389 71.433296203613295 51.119970321655281 165.12721252441409 32425.500000000004 138.60029602050784 95.500000000000014 1.0000000180025095e-35 3767.5000000000005 2269.5000000000005 71.405735015869155 51.164760589599616 43.500000000000007 1.0000000180025095e-35 5.5000000000000009 23602.500000000004 12.500000000000002 1.5000000000000002 23.607684135437015 1.5000000000000002 11.500000000000002 2451.5000000000005 209.7193298339844 5325.5000000000009 8.5000000000000018 5.5000000000000009 1.0000000180025095e-35 24662.000000000004 1.5000000000000002 121.68673324584962 9.5000000000000018 1.0000000180025095e-35 484.62461853027349 71.582408905029311 1.5000000000000002 51.175073623657234 1.0000000180025095e-35 1254.7683105468752 19.500000000000004 71.281597137451186 1.0000000180025095e-35 71.442096710205092 1.0000000180025095e-35 71.419391632080092 12.474761962890627 1431.5000000000002
decision_type=2 2 2 2 2 2 2 2 2 2 2 2 2 2 2 2 2 2 2 2 2 2 2 2 2 2 2 2 2 2 2 2 2 2 2 2 2 2 2 2 2 2 2 2 2 2 2 2 2 2 2 2 2 2 2 2 2 2 2 2 2 2
left_child=2 4 6 19 14 23 10 9 38 50 42 22 49 21 29 28 -14 -18 -19 24 -17 40 25 33 34 -12 48 -28 46 -2 37 -30 47 54 60 36 -23 56 -6 -40 -5 -31 55 59 -41 58 -9 -10 -11 57 51 -7 -26 -39 -4 -1 -21 -8 -13 -35 -3 -24
right_child=1 3 5 13 8 7 12 15 32 26 11 45 16 -15 -16 20 17 18 -20 30 -22 35 61 -25 52 -27 27 -29 31 41 -32 -33 -34 43 -36 -37 -38 53 39 44 -42 -43 -44 -45 -46 -47 -48 -49 -50 -51 -52 -53 -54 -55 -56 -57 -58 -59 -60 -61 -62 -63
leaf_value=-0.01650971410611236 0.046814594012369364 -0.00041283875048713246 -0.031746965275221799 -0.010057111113145147 0.010754876807376856 -0.025569930510142742 -0.018155071135809938 -0.021234613454065035 -0.030723922168308816 -0.016610133949178717 -0.044720375405592525 -0.028097450947943886 -0.01924223751288388 -0.0018167348157713461 0.1120414980995656 0.01033606490951504 0.027464842851748845 -0.028305929634986588 0.0043811786365716126 0.026921165098432905 -0.022086251562292724 0.03705314409551879 0.051352234289420921 0.058987598616718089 -0.046583285745586359 -0.026517101465289558 0.02735866794387759 0.06939139931479861 0.014353868165588557 0.10127823432589683 0.07514497829140214 -0.016836744666707346 0.092092407302037549 -0.010185412121504547 0.0085999918816247693 0.070217832779689668 0.077561745172135779 0.0096603973352327854 0.050156821280545549 -0.018673913478352039 0.038667230048501006 0.066882839871336322 0.12031149393053356 -0.03115732222882955 0.086964386321526019 -0.003459297096869934 0.027702382229209368 0.057158225581392219 0.098872471334476519 0.085781122061721532 -0.001678860305074427 0.062423241198357529 -0.0059878057674655847 0.062508135516223806 -0.014963513749324354 -0.043382263331845437 0.078830852695179032 -0.042175572927940615 -0.011932678296700978 0.0087279984126290098 0.097172137457758712 -0.013760910691650164
leaf_weight=883.83455045521259 1006.1474762260914 78.672202587127686 2960.6642549782991 597.81362803280354 1591.184313133359 107.71512584388256 3502.3342317193747 4844.7743247002363 80.700503587722778 324.10450294613838 4626.0021174699068 3512.1364596933126 3336.2434487789869 773.21741254627705 1222.4295362532139 9153.2036772221327 1752.1842748224735 1511.1791576296091 5818.6834741383791 924.11530058085918 1257.695330530405 4394.8418580591679 127.80818867683411 178.1273340433836 410.35584622621536 7111.2265709638596 1024.7046137750149 1502.7319599688053 2214.1221874654293 1135.2428143024445 258.3496150970459 1429.5932778120041 782.41794128715992 3352.2473654448986 1490.9299776703119 1280.9490551650524 681.36253990232944 5933.7937231361866 1482.9982984960079 326.35618495941162 584.72727602720261 1383.6238472759724 22.786904603242874 915.07831381261349 69.262723982334137 4397.4638735055923 285.5097142457962 2388.6321936994791 48.790024980902672 46.170672908425331 2072.0489646047354 315.01332192122936 3223.0314595550299 219.36615625023842 7660.9716436415911 6627.5707330331206 262.71443472802639 1316.9440167546272 5236.1560772657394 2707.0466308295727 184.94966754317284 2055.9602031856775
leaf_count=7007 5986 523 22981 4225 10405 771 26799 35949 496 2164 37231 26699 25456 5325 6396 64059 12011 11375 42022 6153 9451 28112 968 1237 3214 55317 6656 9577 16120 6495 1599 10518 4332 24208 10353 8014 4019 40768 9373 2135 3869 8150 134 7156 430 32389 2048 14309 296 317 14657 2204 23217 1415 57945 53633 1751 10407 39356 19540 1172 15504
internal_value=-7.20668e-05 0.0349 -0.0122336 0.0212071 0.060309 -0.00263132 -0.020071 0.00511651 0.0444163 0.0270835 -0.0258049 -0.0219393 -0.00858794 0.038698 0.0827398 -0.00106642 -0.00269127 0.00339588 -0.00237254 0.01 0.00641054 0.0428514 -0.0299686 -0.0133443 -0.00137016 -0.0337076 0.0456564 0.0524376 -0.00993691 0.0724341 0.0180582 0.00211009 0.0634675 -0.0140931 0.0177819 0.0481849 0.0425615 0.015999 0.0264966 0.0397659 0.0140968 0.0825546 -0.0396683 -0.00561532 0.000675194 -0.0134284 -0.0184869 0.0542299 -0.000391954 -0.02362 0.00544331 0.039965 -0.0106304 0.0115937 -0.0196545 -0.0402334 0.0386943 -0.024756 -0.0184346 -0.00173544 0.0685844 -0.00984147
internal_weight=127007 32768.2 94238.8 21299.2 11469 42354.1 51884.7 24580 6721.55 5395.11 34600.9 27066.8 17283.7 8312.91 4747.44 19184.9 12418.3 9082.05 7329.86 12986.3 10410.9 7539.69 13921 17774.1 5387.94 11737.2 2900.33 2527.44 8774 3525.01 7598.34 3643.72 3251.75 17596 1754.55 6357.15 5076.2 7339.99 3469.8 1878.62 1182.54 2518.87 7534.19 6974.37 395.619 13145.8 5130.28 2469.33 372.895 4865.45 2494.78 422.728 3633.39 6153.16 10621.6 7511.41 1186.83 4819.28 8748.29 6059.29 263.622 2183.77
internal_count=916398 212236 704162 143729 68507 307537 396625 174470 41480 36325 268238 207464 128387 53564 27027 138145 90864 65408 53397 90165 73510 48239 109020 133067 38479 92548 18693 16233 64635 20631 51686 26638 19137 131830 12048 40145 32131 50087 22343 11938 8094 14645 60774 50904 2565 98444 37997 14805 2460 37523 17632 2975 26431 42183 80926 60640 7904 37206 66055 43748 1695 16472
is_linear=0
shrinkage=0.05


Tree=5
num_leaves=63
num_cat=0
split_feature=37 41 4 37 42 2 2 42 21 37 3 4 39 37 4 3 2 51 41 2 51 28 21 42 42 41 21 41 28 3 4 2 42 3 22 13 4 42 2 41 41 20 2 15 22 2 5 24 42 2 28 4 4 52 27 28 7 42 45 51 13 41
split_gain=19255 3869.59 2625.27 1481.03 1368.66 1305.25 1289.91 1239.96 814.822 778.369 624.523 552.037 539.99 510.425 495.448 497.217 492.956 420.379 427.713 416.425 386.887 365.255 358.952 355.674 347.938 345.415 336.637 334.458 332.256 320.21 385.947 367.112 305.004 302.542 298.48 366.267 298.416 291.789 289.386 280.332 340.064 279.259 275.051 271.08 267.764 244.879 236.822 234.189 232.574 241.473 232.279 230.78 229.192 226.761 339.7 251.039 222.487 238.19 221.125 216.067 207.8 207.668
threshold=1.5000000000000002 4512.5000000000009 51.149406433105476 3.5000000000000004 2110.0000000000005 171.28522491455081 189.12998199462893 883.50000000000011 10.500000000000002 5.5000000000000009 71.400920867919936 51.127035140991218 1.0000000180025095e-35 2.5000000000000004 51.104833602905281 71.405735015869155 189.12998199462893 1.5000000000000002 15773.500000000002 165.12721252441409 1.5000000000000002 12.500000000000002 51.500000000000007 2269.5000000000005 3767.5000000000005 12177.500000000002 56.500000000000007 27956.500000000004 12.500000000000002 71.405735015869155 51.165584564208991 587.34545898437511 3136.5000000000005 71.433296203613295 4.5000000000000009 1.5000000000000002 51.175073623657234 5897.5000000000009 372.68426513671881 43.500000000000007 26683.500000000004 5.5000000000000009 362.75991821289068 1.5000000000000002 13.500000000000002 23.607684135437015 1.0000000180025095e-35 1.0000000180025095e-35 2451.5000000000005 1349.179626464844 9.5000000000000018 51.16107368469239 51.145883560180671 1.0000000180025095e-35 13.500000000000002 11.500000000000002 1.0000000180025095e-35 4641.5000000000009 62.500000000000007 11.500000000000002 9.5000000000000018 12646.500000000002
decision_type=2 2 2 2 2 2 2 2 2 2 2 2 2 2 2 2 2 2 2 2 2 2 2 2 2 2 2 2 2 2 2 2 2 2 2 2 2 2 2 2 2 2 2 2 2 2 2 2 2 2 2 2 2 2 2 2 2 2 2 2 2 2
left_child=2 4 6 19 13 17 10 8 36 37 -1 23 14 38 32 -16 28 21 44 24 39 34 25 47 45 -22 -17 -18 51 31 -31 -10 -8 -25 -4 -36 -7 53 -2 50 -41 48 -38 -39 -19 -3 -26 -12 -21 -50 -9 52 -5 55 -55 -6 57 -30 61 -34 -20 -23
right_child=1 3 5 16 9 7 12 20 29 -11 11 -13 -14 -15 15 26 27 18 60 41 22 58 -24 33 46 -27 -28 -29 56 30 -32 -33 59 -35 35 -37 42 43 -40 40 -42 -43 -44 -45 -46 -47 -48 -49 49 -51 -52 -53 -54 54 -56 -57 -58 -59 -60 -61 -62 -63
leaf_value=-0.03981090975491966 0.038426199233179081 0.05936733475182402 -0.02823838493113039 0.012264155663960954 0.02112642009593927 -0.046426848802944252 -0.035192751295674611 -0.02046937791702208 -0.00086608115706431901 0.064426672893212092 -0.047496757976741036 -0.014508708596275711 0.11371143751745283 0.095633901367166707 -0.021671639124089977 -0.0062274504081767526 0.047873792587258046 -0.0039781861975381949 -0.035453671812113445 0.034959718274592017 0.010960842909908015 0.030245331173369618 0.041158581347496136 -0.013169833194038319 -0.045854721355523646 -0.015734730440632807 0.012442617177603917 0.014127913156570743 0.12227616353952429 0.033668997558936917 0.075426226998765084 0.098166572391740703 -0.013425422975921579 -0.033142081679209852 0.11434563519098247 -0.012936571012189094 -0.020797994697117277 -0.032449187609385484 0.089462705267764064 0.016186356674677934 -0.021547545778073503 0.066275201510918841 0.032308822517241209 0.063431699602834388 0.014734532223694793 0.0090332599952452387 -0.0052578750594351117 -0.014837418903384955 0.0095436585145824981 0.063988178739429399 0.036595343442819971 0.021845303586819999 -0.042460660719955419 0.055155450989588233 -0.029658105712864626 0.075270680879332738 -0.014078155396693798 0.030783589662255136 -0.04095084502642693 0.091956224647098281 0.0031000665849159319 0.1366339464536572
leaf_weight=6501.831088386476 842.55071802437305 281.97336745262146 4229.4515480101109 407.96698540449142 2389.6171514242887 283.46905662119389 2764.4069356694818 3483.7034514695406 561.50401239097118 2975.8932820111513 3319.9015103131533 11544.952722206712 82.84474116563797 2330.4547160714865 3872.5852058008313 8782.5295850560069 5555.2356089353561 6100.1879403740168 1287.1178885921836 1251.6203452050686 5031.2525389939547 276.5852767676115 739.73629020154476 3643.6354518383741 399.18117666244507 1590.882326439023 3324.116995036602 851.94385550916195 151.10008606314659 1091.6912847161293 1148.0036594569683 107.27425900101662 2637.5614310353994 3973.1036451160908 51.922577619552612 9014.456511169672 400.5349238961935 300.11149980127811 421.4175687879324 1796.2256488054991 888.26588320732117 274.32907536625862 607.76977783441544 92.285739719867706 2778.2888978719711 1547.5116935819387 3248.8262855708599 664.3584558442235 6083.0358261913061 205.93914793431759 183.45772211253643 1210.5241631120443 352.48411524295807 1667.917507275939 123.97107230126858 231.49134387075901 78.733282759785652 138.87569196522236 82.63302156329155 44.614272817969322 478.05223599076271 51.273554667830467
leaf_count=54198 4776 1744 32980 2839 14935 2066 21907 26314 3886 16535 27801 87919 542 12123 30280 64229 33729 43541 10065 8121 34911 2004 5086 28272 3229 11857 23326 5533 879 6993 6957 653 20529 31824 387 67865 2889 1987 2278 13021 6632 1625 4084 562 19543 10661 23485 5455 41493 1279 1278 8091 2533 10203 785 1418 545 848 605 343 3543 377
internal_value=-8.29679e-05 0.0324882 -0.0117343 0.0202563 0.056167 -0.00251227 -0.0193523 0.00773093 0.0314828 0.0443286 -0.0261144 -0.0222593 -0.0100273 0.0816979 -0.0105322 -0.00608941 0.0362292 -0.010048 -0.00259093 0.00973593 0.000447261 -0.0158358 0.00824544 -0.0299628 -0.000835522 0.00454054 -0.0010982 0.0434012 0.0165381 0.0461381 0.0551929 0.0156297 -0.0235488 -0.0236028 -0.0172731 -0.012145 -0.00156477 0.0318282 0.0557277 -0.00859058 0.00368382 0.0171413 0.0112144 -0.00938512 0.00188247 0.0169318 -0.00975684 -0.0420764 0.015311 0.0113759 -0.0175686 0.00831952 -0.0132135 0.0354994 0.0492215 0.0260425 0.0597725 0.0797229 0.0303661 -0.0115047 -0.0250331 0.0486859
internal_weight=126835 33415 93420.2 22039.3 11375.7 42263.7 51156.4 17913.8 4200.25 7781.29 29647.8 23146 21508.7 3594.42 21425.8 15979.2 8746.86 24350 10643.6 13292.4 13713.5 13706.3 7361.87 11601 5477.49 6622.13 12106.6 6407.18 2339.68 2908.47 2239.69 668.778 5446.58 7616.74 13295.8 9066.38 1291.77 4805.39 1263.97 6351.65 2684.49 7814.92 1008.3 392.397 8878.48 1829.49 3648.01 3984.26 7540.6 6288.97 3667.16 1970.98 760.451 4413 1791.89 2621.11 368.709 289.976 410.492 2682.18 1765.17 327.859
internal_count=916398 212236 704162 146634 65602 307537 396625 126627 27528 46425 235469 181271 161156 19177 160614 117835 54997 180910 76692 91637 99099 104218 51854 93352 39119 46768 87555 39262 15735 18489 13950 4539 42779 60096 101232 68252 9039 29890 7054 47245 19653 52518 6973 2549 63084 12405 26714 33256 50893 42772 27592 13463 5372 27341 10988 16353 2272 1727 2986 20872 13608 2381
is_linear=0
shrinkage=0.05


Tree=6
num_leaves=63
num_cat=0
split_feature=37 41 4 2 2 2 21 42 42 37 3 4 37 2 37 4 3 42 51 2 28 41 41 40 0 42 41 51 2 37 37 37 20 51 26 14 42 2 39 2 3 42 21 2 53 3 13 51 25 3 3 5 51 41 3 25 5 21 4 41 42 42
split_gain=17186.5 3344.21 2427.01 1397.59 1225.32 1220.33 1143.21 1156.45 958.785 842.046 684.818 668.709 661.951 553.484 540.921 484.031 621.974 454.962 453.599 427.683 413.077 402.196 395.516 387.858 367.402 353.214 352.495 404.59 333.65 320.751 312.76 308.935 287.6 286.904 283.071 303.296 262.221 376.759 252.773 250.922 322.778 247.241 239.852 237.706 263.579 233.978 232.799 232.213 405.865 230.276 223.465 222.016 218.828 216.715 211.048 210.548 204.937 204.335 200.371 194.363 194.083 193.646
threshold=1.5000000000000002 8237.5000000000018 51.149406433105476 217.9795837402344 240.26533508300784 96.285667419433608 20.500000000000004 1930.5000000000002 2083.5000000000005 6.5000000000000009 71.400920867919936 51.127952575683601 7.5000000000000009 135.95731353759768 1.0000000180025095e-35 51.120309829711921 71.409271240234389 3136.5000000000005 1.5000000000000002 211.17442321777347 5.5000000000000009 144.50000000000003 95.500000000000014 1.0000000180025095e-35 3.5000000000000004 2269.5000000000005 28630.500000000004 1.5000000000000002 23.607684135437015 2.5000000000000004 4.5000000000000009 3.5000000000000004 1.0000000180025095e-35 1.5000000000000002 1.0000000180025095e-35 16.500000000000004 1302.5000000000002 793.45281982421886 1.0000000180025095e-35 463.55793762207037 71.349662780761733 3767.5000000000005 82.500000000000014 135.95731353759768 1.0000000180025095e-35 71.582408905029311 1.5000000000000002 1.5000000000000002 1.0000000180025095e-35 71.462425231933608 71.268035888671889 1.0000000180025095e-35 2.5000000000000004 12177.500000000002 71.508979797363295 1.5000000000000002 1.0000000180025095e-35 76.500000000000014 51.175985336303718 24662.000000000004 3263.5000000000005 4690.0000000000009
decision_type=2 2 2 2 2 2 2 2 2 2 2 2 2 2 2 2 2 2 2 2 2 2 2 2 2 2 2 2 2 2 2 2 2 2 2 2 2 2 2 2 2 2 2 2 2 2 2 2 2 2 2 2 2 2 2 2 2 2 2 2 2 2
left_child=2 3 4 17 10 33 23 19 29 13 38 22 18 41 15 42 -17 30 24 32 -18 -16 25 26 -10 -12 27 -7 61 49 47 -30 -8 55 39 -36 -23 -38 50 46 -41 -3 45 44 -13 -6 -15 -2 -49 -5 -1 -43 -21 -45 -31 -4 -51 -14 -33 -35 -24 -19
right_child=1 9 5 8 14 6 7 -9 12 -11 11 43 57 34 21 16 20 28 -20 52 -22 36 60 -25 -26 -27 -28 -29 31 54 -32 58 -34 59 35 -37 37 -39 -40 40 -42 51 -44 53 -46 -47 -48 48 -50 56 -52 -53 -54 -55 -56 -57 -58 -59 -60 -61 -62 -63
leaf_value=-0.010662717462639255 0.025174428602508764 0.017001111461559536 -0.026674845670371344 0.072710204991566427 -0.028741153739278359 -0.012827777021339457 -0.01688154710011858 0.00014468801728201403 0.019422424743785745 0.045997407313887365 -0.043214631707134465 -0.026634164532822496 0.073311973306165248 -0.022440119865432324 0.11873131003944296 -0.027205015044862009 -0.006335606324781644 0.06486351810644729 0.062013895144317432 0.036919688514148258 0.025107265371666628 0.035006264751702432 0.017479437789925969 0.067138204797080367 0.052413797017808572 -0.024976146451554024 -0.028926913649377713 0.0040779069892885635 -0.010968595451538124 0.092838760589596198 0.080021486746819803 0.03517670205405634 0.024474983551692517 -0.0016634765531417857 0.055259821303128301 0.0019159459024203078 -0.0058275838933988097 0.037370456420668462 0.1094744727379125 -0.013477321557586958 0.035052015670751217 -0.049773777279087016 0.0066042726182280291 0.0062157900159132452 -0.0096052202297409323 0.04729192254472521 0.011846762290783852 0.00052307658785711241 0.1029961634279172 0.057710072424509817 -0.041378940150583188 -0.0060294785118340591 0.070026549424182835 -0.02252126988693871 -0.027456055588285219 -0.010718255639156264 -0.019147188974920133 0.016438570449980566 -0.015112139539620831 -0.031933034694530099 -0.017241573370746801 0.0032668669668334811
leaf_weight=656.53728967905045 1697.4899039566517 1111.4845134168863 5122.0960077792406 704.36855307221413 5124.2571821063757 6594.0118633806705 491.21792775392532 6500.9765265956521 2904.5548903048038 1923.712275326252 4359.4572776630521 3798.6661097109318 2203.6304740458727 532.50420244783163 72.961112469434738 1945.9956863373518 2487.7495824545622 420.48973797261715 1408.8890287727118 2099.8107414245605 1793.6445074230433 603.39219090342522 531.71061635017395 177.2657807469368 1191.3321040868759 6872.6004653796554 1537.7819548472762 7628.4564196616411 1365.4587999731302 2115.6019950509071 436.9890723079443 896.14733704924583 2787.7561403661966 4488.526908621192 887.61150851845741 380.3851941972971 3764.5795755386353 577.78339914977551 24.290041536092758 403.6466312110424 2178.9495669454336 314.19538421183825 579.13426241278648 2569.4149058014154 5668.181597456336 98.887780785560608 6323.640866920352 149.53125567734241 268.3830441236496 182.15073053538799 6444.5786580145359 3203.8269264698029 665.20527744293213 875.43937930464745 35.046532809734344 3481.7402322441339 158.08988556265831 173.69182899594307 250.77153770625591 596.48021594434977 1609.1655107289553 183.03380984067917
leaf_count=5396 10255 7516 40296 3812 40541 50014 3339 46295 17779 11157 37231 29640 11619 3634 448 15394 18048 2620 8216 13353 12576 4324 4096 1191 7131 55317 12189 53555 9199 10600 2342 5384 18883 32448 5726 2545 27795 4208 134 2721 13778 2600 4316 19008 43337 737 42281 901 1529 1008 55244 23136 4122 6459 195 26984 883 956 1532 4868 12376 1181
internal_value=-9.1644e-05 0.0303066 -0.0112523 0.0462229 -0.0186507 -0.00239881 0.00349786 0.0147856 0.0565568 0.0148557 -0.0242162 -0.0204818 0.0471342 0.0109357 -0.00774014 -0.0134911 -0.00380446 0.0259957 0.0375507 0.0305203 0.00685097 0.00604439 -0.0283178 -0.00538893 0.0290705 -0.0320711 -0.00622572 -0.00376189 0.0131421 0.0796907 0.0416307 0.0050855 0.0182632 -0.0146649 0.0171793 0.0393276 0.00426377 -4.33963e-05 -0.0379675 0.0141847 0.0274557 -0.00350709 -0.0238752 -0.0123581 -0.0164487 -0.0272578 0.00916935 0.0335301 0.0667706 0.0564554 -0.0385486 -0.0100014 0.0449965 -0.0011092 0.0908193 -0.0202276 0.0222389 0.0691999 0.0241633 -0.00524203 -0.00859759 0.0463631
internal_weight=126635 34005.6 92629.8 16745.7 50458.4 42171.3 28482.5 12545 11077.4 17260 33410 26284.6 7882.1 15336.2 17048.4 12029.7 6227.39 5668.29 5504.78 6043.99 4281.39 5018.72 13372.9 15937.5 4095.89 11232.1 15760.3 14222.5 3115.9 3195.26 2552.39 2512.38 3278.97 13688.8 10706.7 1268 4945.76 4342.36 7125.41 9438.74 2582.6 4629.51 5802.28 12911.7 9466.85 5223.14 6856.15 2115.4 417.914 1044.61 7101.12 3518.02 2765.02 3444.85 2150.65 8603.84 340.241 2377.32 1146.92 5085.01 2140.88 603.524
internal_count=916398 212236 704162 97142 396625 307537 202941 85992 62199 115094 268238 207464 45701 103937 128387 91612 46018 34943 33126 39697 30624 36775 109020 116949 24910 92548 115758 103569 19916 16498 15027 16115 22222 104596 70685 8271 36327 32003 60774 62414 16499 33252 45594 98444 72977 41278 45915 12685 2430 5703 60640 25736 17475 25467 10795 67280 1891 12575 6916 37316 16472 3801
is_linear=0
shrinkage=0.05


Tree=7
num_leaves=63
num_cat=0
split_feature=37 41 4 42 37 2 2 21 42 3 37 4 2 4 37 3 3 51 41 2 41 51 42 4 37 51 40 51 20 2 5 39 16 41 42 2 27 24 3 5 2 3 3 2 20 3 26 4 53 51 3 2 3 4 3 0 6 41 51 41 42 27
split_gain=15362.7 2894.52 2243.2 1259.85 1149.83 1147.83 1112.2 1023.32 1014.33 658.58 642.664 632.014 546.258 501.816 456.041 392.15 419.528 388.039 375.833 365.238 351.167 398.321 344.437 325.261 302.588 289.064 284.938 266.522 255.474 247.773 243.056 229.152 227.397 226.685 226.618 222.3 221.597 295.885 217.93 213.827 294.596 209.526 214.805 205.954 205.791 203.032 202.959 200.044 194.859 193.498 199.304 193.434 371.778 307.924 279.784 217.98 196.888 186.949 180.74 180.712 180.155 173.119
threshold=1.5000000000000002 10797.000000000002 51.149406433105476 2110.0000000000005 3.5000000000000004 240.26533508300784 96.285667419433608 20.500000000000004 1930.5000000000002 71.400920867919936 2.5000000000000004 51.127952575683601 165.12721252441409 51.104833602905281 11.500000000000002 71.409271240234389 71.424266815185561 1.5000000000000002 95.500000000000014 211.17442321777347 28630.500000000004 1.5000000000000002 2269.5000000000005 51.135541915893562 17.500000000000004 1.5000000000000002 1.0000000180025095e-35 1.5000000000000002 1.0000000180025095e-35 296.88342285156256 1.0000000180025095e-35 1.0000000180025095e-35 1.0000000180025095e-35 512.50000000000011 4814.5000000000009 121.68673324584962 14.500000000000002 1.0000000180025095e-35 71.281597137451186 12.500000000000002 155.33794403076175 71.582408905029311 71.442096710205092 308.69740295410162 1.5000000000000002 71.489151000976577 1.0000000180025095e-35 51.118234634399421 1.0000000180025095e-35 4.5000000000000009 71.449413299560561 452.10252380371099 71.349662780761733 51.149808883666999 71.390922546386733 6.5000000000000009 1.0000000180025095e-35 144.50000000000003 2.5000000000000004 24662.000000000004 1431.5000000000002 10.500000000000002
decision_type=2 2 2 2 2 2 2 2 2 2 2 2 2 2 2 2 2 2 2 2 2 2 2 2 2 2 2 2 2 2 2 2 2 2 2 2 2 2 2 2 2 2 2 2 2 2 2 2 2 2 2 2 2 2 2 2 2 2 2 2 2 2
left_child=2 3 5 10 25 9 27 20 19 31 43 18 30 41 17 47 46 32 22 28 21 29 -11 -18 51 39 -23 44 -9 -8 61 38 -6 -12 -32 48 37 -27 57 40 -5 42 -7 -2 -4 -45 -17 -15 -13 -10 -51 53 -53 55 -54 -14 -55 -1 -21 -29 -20 -3
right_child=1 12 6 4 14 13 7 8 49 11 33 35 24 15 -16 16 23 -19 60 58 -22 26 -24 -25 -26 36 -28 59 -30 -31 34 -33 -34 -35 -36 -37 -38 -39 -40 -41 -42 -43 -44 45 -46 -47 -48 -49 -50 50 -52 52 54 56 -56 -57 -58 -59 -60 -61 -62 -63
leaf_value=-0.0008269339396110557 0.026655965249420113 -0.041224364194682089 -0.032284282162343768 -0.0099960787729104095 0.035596692073441225 -0.015932955581365597 -0.02051494595305195 -0.01622350028353357 -0.0010366226530544845 -0.04241213544149542 0.10157660779379601 -0.02594322843763416 -0.0040027865393793792 0.010893539274457249 0.069721470621944864 0.045797730840095509 -0.0073729736416199027 0.062369401176048181 0.047215693204171939 0.034294683943281792 -0.028066255753679367 0.0038635525811812517 -0.02416487575772901 0.014576761872406103 0.091812111446375133 0.029266845609586034 0.088374261148945588 -0.0015821969160330161 0.022887570138047174 -0.001093634803507753 0.013841640727383739 0.10009602658194315 -0.017438996924913627 0.06885568778737472 -0.0085222853075595448 -0.0026544661891587818 -0.034189449769615132 0.084875581870372807 -0.041009164092287012 0.044892260804145385 0.017305286888464846 0.076598029860163341 -0.040336085414416294 0.071636173217983601 -0.014736774982300502 0.0087552388905770637 -0.0021304138269601933 -0.022678067310276342 -0.010409175591785849 0.098419257940274618 -0.050612727299208363 -0.018384383048252437 0.084217630267974755 0.011685406256922921 0.029412654146230111 0.060471962060056887 0.034171549817060824 -0.05661750687605132 0.063858490664482889 -0.031065571024132273 -0.012006108238298313 0.068486497734292731
leaf_weight=649.63059511780739 1182.6508956849575 498.7634868696332 2294.7929902374744 1516.3345661982894 5203.806419223547 3361.1233187913895 3624.3548749610782 485.92580400407314 6387.9981343671679 4223.4176785796881 728.36385008692741 3346.5926963537931 2491.263224452734 528.5367830991745 1578.8719453513622 778.05864758789539 5606.8628033995628 1499.6159389317036 132.33457954227924 2146.6320007741451 1506.6483989655972 7648.8473280891776 6751.4651522785425 2408.7037773579359 133.86729675531387 1226.3749668970704 96.074176505208015 4483.5391056537628 2831.2363939285278 3000.5511376708746 2122.9767929911613 25.668218225240707 207.43352529406548 2308.588386952877 2417.2584264725447 4347.0335971564054 103.06266117095947 295.9278349429369 6063.074224896729 421.08611412346363 2817.307427123189 49.174758523702621 1234.6961845979095 659.45775116980076 6187.8225492686033 160.98626837134361 307.0736470669508 2677.8743877112865 5107.7622110843658 87.444360285997391 26.155699551105499 367.60557408630848 257.92639777064323 2254.9445137232542 2202.8713525682688 133.35870979726315 1719.2017467170954 190.35678257793188 692.71315431594849 582.9669394120574 1995.8360852897167 34.260303542017937
leaf_count=5420 6886 4072 18495 10100 30087 26799 28222 3339 45504 37231 3441 26699 16391 3991 7976 5034 41048 8253 968 13353 12189 53555 55317 17221 731 7674 598 32448 18883 22385 14712 134 1222 11750 17303 32389 664 1784 53633 2635 17762 317 10407 3480 48785 904 2105 21465 39356 606 185 2501 1580 14744 13463 813 11075 1587 4122 4868 15504 233
internal_value=-9.93314e-05 0.0283235 -0.0107877 0.0407302 0.0333873 -0.0179705 -0.0022893 0.00331199 0.0139136 -0.0234253 0.0623397 -0.019756 0.0114361 -0.00740174 0.045438 -0.00211377 0.0031854 0.0398438 -0.027475 0.0284499 -0.00514221 -0.00272974 -0.031203 -0.000772032 0.0184699 0.0173289 0.00496823 -0.0140826 0.0171425 -0.0117261 -0.00182484 -0.0371198 0.0335494 0.0768573 0.00193863 -0.0118475 0.0355045 0.0403194 -0.0377021 0.011085 0.00775207 -0.0213951 -0.0225257 0.0401925 -0.0195001 0.0594255 0.0322873 -0.0171359 -0.0165699 0.000137446 0.0634184 0.0173803 0.0283166 0.0126749 0.0353161 -0.00061803 0.0214435 -0.0137303 0.0416069 -0.00500192 -0.00822152 -0.0336017
internal_weight=126413 34544.2 91869 19909.9 14869.8 49785.3 42083.7 28534.6 12658.1 32833.2 5040.05 25904.4 14634.3 16952.1 8489.73 12307.1 9100.7 6910.86 13103.1 6156.51 15876.5 14369.8 10974.9 8015.57 9561.04 6380.09 7744.92 13549.1 3317.16 6624.91 5073.26 6928.73 5411.24 3036.95 4540.24 12801.4 1625.37 1522.3 6903.06 4754.73 4333.64 4644.99 4595.82 2003.09 8482.62 820.444 1085.13 3206.41 8454.35 6501.6 113.6 9427.17 2828.4 6598.77 2460.8 2624.62 3974.15 839.987 2839.35 5066.51 2128.17 533.024
internal_count=916398 212236 704162 114618 88157 396625 307537 202941 85992 268238 26461 207464 97618 128387 47538 90864 65408 39562 109020 39697 116949 104760 92548 58269 61298 40619 54153 104596 22222 50607 36320 60774 31309 15191 32015 98444 10122 9458 60640 30497 27862 37523 37206 11270 67280 4384 7139 25456 66055 46295 791 60567 17544 43023 15043 17204 25819 7007 17475 37316 16472 4305
is_linear=0
shrinkage=0.05


Tree=8
num_leaves=63
num_cat=0
split_feature=37 41 4 2 37 2 42 42 3 27 37 4 3 37 21 4 3 42 2 41 37 28 42 3 41 51 37 2 27 51 41 51 2 51 50 5 51 37 24 42 2 53 41 42 3 2 4 2 29 42 2 74 22 11 25 2 0 4 3 5 25 29
split_gain=13751.2 2557.46 2071.79 1075.22 1054.31 1013.41 939.203 920.471 561.743 534.414 492.472 477.438 439.65 433.746 420.699 417.312 624.069 370.41 391.838 369.862 348.904 347.472 335.013 319.157 306.07 298.108 351.552 294.037 293.613 291.766 313.584 253.265 249.622 248.007 288.765 262.399 247.373 241.545 239.823 256.387 237.666 233.082 278.077 232.138 230.757 226.761 224.494 222.538 245.315 222.109 220.779 219.293 214.339 242.415 195.542 191.85 191.791 183.153 182.196 180.133 179.126 176.464
threshold=1.5000000000000002 4512.5000000000009 51.149406433105476 189.12998199462893 3.5000000000000004 96.285667419433608 805.50000000000011 2729.5000000000005 71.400920867919936 1.5000000000000002 3.5000000000000004 51.126842498779304 71.405735015869155 1.0000000180025095e-35 12.500000000000002 51.120309829711921 71.409271240234389 1302.5000000000002 793.45281982421886 34912.000000000007 4.5000000000000009 5.5000000000000009 5085.5000000000009 71.432331085205092 3775.5000000000005 1.5000000000000002 7.5000000000000009 189.12998199462893 7.5000000000000009 1.5000000000000002 31171.500000000004 1.0000000180025095e-35 983.56082153320324 1.5000000000000002 1.0000000180025095e-35 15.500000000000002 1.5000000000000002 12.500000000000002 1.5000000000000002 3162.5000000000005 113.0564422607422 1.0000000180025095e-35 11381.500000000002 2426.5000000000005 71.503467559814467 220.29631042480472 51.117004394531257 262.76452636718756 2.7500000000000004 4242.5000000000009 484.62461853027349 1.0000000180025095e-35 24.500000000000004 1.0000000180025095e-35 1.5000000000000002 290.72219848632818 4.5000000000000009 51.180831909179695 71.47369766235353 17.500000000000004 3.5000000000000004 1.7500000000000002
decision_type=2 2 2 2 2 2 2 2 2 2 2 2 2 2 2 2 2 2 2 2 2 2 2 2 2 2 2 2 2 2 2 2 2 2 2 2 2 2 2 2 2 2 2 2 2 2 2 2 2 2 2 2 2 2 2 2 2 2 2 2 2 2
left_child=2 7 3 8 22 36 9 20 -1 32 60 23 50 15 29 38 -17 52 28 25 31 -18 33 43 -22 26 45 -14 -19 -8 -31 -2 -7 35 58 55 54 51 39 -5 -24 57 -43 -10 -34 -6 -25 48 -33 -28 -11 -12 -15 -54 -4 -3 -42 -16 -35 -13 -9 -20
right_child=1 4 5 13 19 6 14 10 11 12 37 59 27 17 41 16 21 18 61 -21 24 -23 40 46 -26 -27 49 -29 -30 30 -32 47 44 34 -36 -37 -38 -39 -40 -41 56 42 -44 -45 -46 -47 -48 -49 -50 -51 -52 -53 53 -55 -56 -57 -58 -59 -60 -61 -62 -63
leaf_value=-0.03732328841082453 0.029685805014872054 0.00075659335070003006 -0.025140627342401068 -0.031604202255724273 0.0069163890477813425 -0.011968566085195724 -0.01891760844812361 0.018180285015194527 -0.032434172100028802 -0.012569086566636623 -0.030541192613920687 -0.013466111938863335 0.020035815207928912 0.010018766661277816 -0.0058075355632805099 -0.026707480454333028 -0.0081820031827724068 -0.016227848114691371 0.066531511899065685 -0.0031388595628451532 0.082113497191411977 0.016561733704480618 -0.02085922881196501 -0.04450084265452578 -0.020343647221512266 0.051798005889415494 0.0719998045079598 0.04994959860049273 0.0094530200727231135 0.0025214078073255222 -0.038604265224404542 0.014411080829845498 0.071361067088735672 0.030897162179529883 0.10458825139425879 0.06956609390576117 -0.0047721494861936199 0.066895470033643198 0.12564385771515826 -0.011746408440895311 0.00070510106517045277 0.016226567537707084 -0.0063112829789923296 -0.010287688289669056 -0.050175802912329051 0.029155280188322835 -0.024104988974408551 0.07332167918063652 0.060996436009475345 0.034498813905631941 0.062002139815157259 0.039304796639245861 0.077049034940776362 -0.053865274412332478 -0.0095716982551050222 0.018186452384508459 0.049242194039076266 0.024290051890863803 -0.0062231557114619356 0.060558510954502959 -0.041815821271730697 0.011753742747980356
leaf_weight=5971.6316671296954 1017.2303577959538 4374.0675858855247 4949.3322125449777 3854.747270591557 1801.8284237384796 1353.7043319046497 4373.7626873552799 2399.6440487802029 1884.1901516541839 723.7536584213376 112.83554615080357 11380.336499534547 1379.0587561428547 409.89530999958515 5351.104988090694 2480.1496790573001 3048.1931517571211 3085.5821903944016 258.20208112895489 785.81180772185326 1782.0900437682867 2645.848335467279 1367.6116654574871 3220.3008783832192 74.135574668645859 1648.021651700139 590.53364339470863 2065.5697536021471 1735.3127529993653 4778.7323815077543 508.25916425138712 458.32607385516167 172.06926728785038 1654.7820047140121 111.64681346714497 167.16088008880615 5048.7777396887541 850.00635188817978 22.280338764190674 2823.4263710305095 2813.5817776620388 5326.4384937286377 1838.2199450135231 3186.7262252569199 46.219860918819904 3164.1883502453566 2360.4597029685974 1363.4321347922087 748.62008634209633 1237.6917246878147 109.91286313533783 3297.2788184136152 317.45142069458961 36.16728837788105 3417.2191707268357 2465.8160021901131 214.40991477668285 553.19714138656855 410.8987764492631 77.93496972322464 126.54879687726498 339.14614740014076
leaf_count=54198 5492 29877 40296 31475 11886 9677 34746 14704 16943 5085 660 89459 9087 2946 38548 20508 22323 23247 1833 5325 8239 18538 10211 28152 359 9369 3137 12079 12589 33380 4288 2483 1062 10832 699 978 37316 4091 147 22791 19077 36530 13463 25677 363 18524 20424 6697 4009 6756 644 18069 2103 243 26984 15828 1429 3989 2706 616 799 2413
internal_value=-0.000104927 0.026514 -0.01034 -0.0173089 0.0166162 -0.00218479 0.00313685 0.0449582 -0.0237131 0.0209937 0.0326312 -0.0200295 0.030145 -0.00876453 -0.00146284 -0.0133895 -0.00580139 0.00236598 -0.00223963 0.0296527 0.060281 0.0033201 0.00774969 -0.0276501 0.0779778 0.0327051 0.0280392 0.03802 -0.00698363 -0.00937205 -0.0014649 0.0510288 -0.00392892 0.0131804 0.0279033 0.00858881 -0.013519 0.0429982 -0.0226354 -0.0232237 -0.00359951 0.00438511 0.0104437 -0.0185405 0.0450799 0.0211014 -0.0359034 0.0594013 0.0434385 0.0467753 -0.00242638 0.0369524 0.0348514 0.0630951 -0.0187912 0.00704885 0.00421749 -0.00296941 0.0235161 -0.0129364 0.0150981 0.035787
internal_weight=126172 35038.2 91133.3 49138 22808.1 41995.3 28580 12230.1 28081.6 5850.29 6786.31 22109.9 4278.3 21056.4 22729.7 14874.6 8174.19 6181.76 5418.24 9228.08 5443.83 5694.04 13580 10651.7 1856.23 8442.26 6794.24 3444.63 4820.89 9660.75 5286.99 3587.61 1571.99 9184.37 2177.33 7007.04 13415.3 4260.12 6700.45 6678.17 4395.6 13069 7164.66 5070.92 218.289 4966.02 5580.76 2570.38 1206.95 1828.23 833.667 3410.11 763.514 353.619 8366.55 6839.88 3027.99 5904.3 2065.68 11458.3 2526.19 597.348
internal_count=916398 212236 704162 396625 146634 307537 202941 65602 235469 37997 38323 181271 26895 161156 164944 115782 61369 45374 40082 54997 27279 40861 91637 91196 8598 49672 40303 21166 35836 72414 37668 18681 11102 60920 14237 46683 104596 22820 54413 54266 30717 92530 49993 42620 1425 30410 48576 13189 6492 9893 5729 18729 5292 2346 67280 45705 20506 42537 13538 90075 15503 4246
is_linear=0
shrinkage=0.05


Tree=9
num_leaves=63
num_cat=0
split_feature=37 41 4 2 2 2 42 42 3 4 21 37 4 2 3 20 23 52 21 5 9 3 22 27 51 3 21 37 41 51 4 41 37 42 42 41 51 2 5 2 3 42 27 40 3 4 2 41 2 4 42 51 42 3 40 19 53 42 4 41 58 57
split_gain=12323.7 2231.72 1911.81 1019.53 981.879 943.634 827.287 633.375 605.553 565.699 523.472 490.21 444.537 439.317 359.614 352.677 415.618 343.241 338.952 353.917 382.646 329.833 375.337 328.259 322.43 319.893 296.685 286.801 277.339 280.252 270.672 258.679 247.687 239.101 236.437 232.692 269.757 230.388 223.695 214.87 305.785 214.263 212.368 210.887 221.478 200.804 199.202 198.526 220.16 242.735 198.407 193.587 190.293 187.267 186.468 188.411 184.659 182.72 181.502 180.927 179.787 179.131
threshold=1.5000000000000002 10797.000000000002 51.149406433105476 240.26533508300784 217.9795837402344 171.28522491455081 883.50000000000011 2083.5000000000005 71.400920867919936 51.127952575683601 10.500000000000002 7.5000000000000009 51.104833602905281 165.12721252441409 71.432331085205092 3.5000000000000004 1.0000000180025095e-35 1.0000000180025095e-35 21.500000000000004 2.5000000000000004 1.0000000180025095e-35 71.409271240234389 53.500000000000007 8.5000000000000018 1.5000000000000002 71.456195831298842 44.500000000000007 2.5000000000000004 48350.500000000007 1.5000000000000002 51.175073623657234 191.50000000000003 18.500000000000004 2083.5000000000005 4617.5000000000009 10944.500000000002 1.5000000000000002 362.75991821289068 1.0000000180025095e-35 502.23588562011724 71.405735015869155 2957.0000000000005 12.500000000000002 1.0000000180025095e-35 71.281597137451186 51.117004394531257 121.68673324584962 16789.500000000004 827.51177978515636 51.088911056518562 4216.5000000000009 13.500000000000002 4814.5000000000009 71.508979797363295 1.0000000180025095e-35 7.5000000000000009 1.0000000180025095e-35 4190.5000000000009 51.123445510864265 700.50000000000011 7.5000000000000009 7.5000000000000009
decision_type=2 2 2 2 2 2 2 2 2 2 2 2 2 2 2 2 2 2 2 2 2 2 2 2 2 2 2 2 2 2 2 2 2 2 2 2 2 2 2 2 2 2 2 2 2 2 2 2 2 2 2 2 2 2 2 2 2 2 2 2 2 2
left_child=2 4 3 8 15 18 10 27 43 14 30 17 47 38 31 16 -2 23 35 20 42 58 25 -9 -18 -23 28 -6 29 -8 -7 -10 -15 -24 -26 36 -4 -32 -3 40 -12 -17 -20 44 59 -16 56 51 49 -49 -13 -5 -40 -29 55 -21 -11 -38 -14 -1 -43 -50
right_child=1 13 5 12 7 6 26 11 9 46 39 50 21 32 45 41 24 -19 19 54 -22 22 33 -25 34 -27 -28 53 -30 -31 37 -33 -34 -35 -36 -37 57 -39 52 -41 -42 60 -44 -45 -46 -47 -48 48 61 -51 -52 -53 -54 -55 -56 -57 -58 -59 -60 -61 -62 -63
leaf_value=0.00097984688449443964 -0.030292779101198639 -0.032771733377473029 -0.021595866491299617 -0.024433319348015604 0.041123600707371338 -0.045345888300033832 -0.0097977505445345243 0.013558573532856206 -0.022364120564328474 -0.024706939107501311 -0.0016319734282446764 0.067746752468108171 0.0054467535213718922 0.015416734453820533 -0.04209298486006989 0.049731896653329159 0.0074524542656069564 0.044401591279603872 0.013123132676796915 -0.010362915020972707 0.11536572313379485 0.01541931027918419 0.065264588125355502 0.044809687548321028 0.056218771354934166 -0.0058503502182406745 0.017421360042846178 0.072938803712086858 -0.035069450217691506 0.0063088368727255012 -0.019572767341263814 0.0031047912386729516 0.092226745095612447 -0.00044300982542876973 0.0030337993708187444 -0.030794228346109377 -0.010079054426093893 0.029105422038998838 0.012456029128296676 0.069790774626606586 0.03965721498678601 0.047131181534515329 -0.016214011207631884 0.07119956851948385 -0.03965770412345055 -0.024417435792263756 -0.0021881338012907799 -0.033163071801909347 -0.0027156447198186748 0.04444319945602937 0.041080628265324659 0.1862498820524697 -0.0079960076233656745 -0.032605842269856626 0.05421454669880809 0.039194318723743952 -0.009411856513797584 0.011466102506016092 -0.022572995813357456 -0.055808399280131107 0.012294242450149297 0.13414458418772141
leaf_weight=632.68696486204863 530.29416151344776 520.20906163752079 3833.9330929741263 3983.6992498412728 1222.5158389359713 272.21440226584673 4878.9734342172742 3394.6863273382187 4817.1055361330509 3255.7428552433848 565.32418841123581 1400.6864372342825 762.58630178123713 9664.6626459956169 3543.9800696074963 1201.5188550800085 2545.7231694757938 2521.5203287154436 2997.8162563219666 9092.9851580411196 78.460283890366554 2497.5119275599718 375.66615162789822 1115.2654014676809 716.02422294020653 6015.8890718519688 2159.6630925983191 2395.3703504353762 622.70260276645422 6036.6834229901433 391.28521429002285 1255.3907044306397 101.33659693598747 217.48062512278557 295.08135022968054 1971.9325610399246 3346.2127974033356 625.198445931077 2155.0678831338882 413.89980848133564 2156.2930674403906 518.12426165491343 771.81846278905869 41.588396422564983 5712.0112691298127 2993.6001268401742 4317.9621208906174 287.32464768737555 41.033733487129211 148.83288081735373 1463.4205904901028 5.9976536035537711 2397.2848826646805 40.12653823196888 112.02250008285046 191.10794006288052 5025.9854009747505 1388.4752100855112 2360.3897154405713 175.1459022462368 1287.6919563487172 51.643625661730766
leaf_count=5420 3431 4305 31645 33444 6296 2066 37438 19955 41676 26699 3856 6727 5933 60788 31711 6580 15770 14029 21608 69207 546 17124 2462 6354 4064 44359 14806 11060 5015 41840 2889 9721 510 1463 1894 16302 23934 4084 14712 2343 12290 3089 5674 273 53520 25912 32389 2260 272 1163 7333 48 17303 217 756 1371 39356 9867 19523 1561 7819 336
internal_value=-0.000109333 0.0248587 -0.00990854 -0.0166647 0.0354867 -0.00208535 0.00650915 0.043376 -0.0219266 -0.0183982 0.0252936 0.0367685 -0.00667925 0.0100627 -0.0258844 0.0203945 0.0108108 0.0296278 -0.00863372 -0.00330673 0.00945719 -0.00172503 0.00308489 0.0213277 0.0169729 0.000394757 0.000435103 0.061176 -0.00275042 -0.000891518 -0.00153416 -0.0171006 0.0162605 0.0413702 0.0407886 -0.0153223 -0.0117458 0.0103632 -0.0018739 0.0363047 0.0310935 0.0333796 0.00710294 -0.0354584 -0.0361928 -0.0340241 -0.0108986 -0.0200713 0.00864662 -0.00647741 0.054217 -0.0238839 0.00168896 0.0711366 -0.00853633 -0.00932226 -0.015436 -0.00375538 -0.0157332 -0.0115999 0.0223922 0.0765113
internal_weight=125913 35486.6 90426.3 48519.3 20648 41907 18122.2 13553.6 31771.2 25209.8 4424.22 9895.58 16748.1 14838.6 12610.1 7094.46 4087.12 7031.47 23784.8 13244.2 3848.1 12229.5 9106.55 4509.95 3556.83 8513.4 13698 3658.01 11538.4 10915.7 1288.7 6072.5 9766 593.147 1011.11 10540.6 8568.62 1016.48 5072.56 3135.52 2721.62 3007.34 3769.63 6561.43 6519.84 6537.58 12599.7 4518.53 528.835 436.158 2864.11 3989.7 4552.35 2435.5 9396.12 9284.09 8281.73 4734.69 3122.98 807.833 1805.82 92.6774
internal_count=916398 212236 704162 396625 114618 307537 126627 71971 268238 207464 27528 54398 128387 97618 109020 42647 25159 40338 180910 99162 27828 90864 65408 26309 21728 61483 99099 17573 84293 79278 9039 51397 61298 3925 5958 81748 65446 6973 36320 18489 16146 17488 27282 60774 60501 57623 98444 37523 4031 3423 14060 33492 32015 11277 71334 70578 66055 33801 25456 6981 10908 608
is_linear=0
shrinkage=0.05


Tree=10
num_leaves=63
num_cat=0
split_feature=37 41 2 4 42 37 4 3 42 37 51 41 42 2 37 3 1 41 41 52 40 51 41 42 37 3 40 41 42 42 51 2 27 21 51 37 2 71 12 53 51 17 19 2 45 3 13 5 51 50 12 4 41 2 22 9 51 42 3 4 19 41
split_gain=11053.4 1991.52 1766.4 1088.99 1248.29 854.501 852.294 809.691 744.819 553.265 461.266 444.92 424.337 418.365 357.189 340.554 389.163 332.372 330.103 316.309 316.657 307.377 300.41 271.228 262.875 326.35 257.898 254.138 251.659 243.996 309.014 243.343 325.384 227.772 223.203 267.06 218.508 235.144 215.443 217.949 214.398 214.231 246.972 213.987 210.464 208.996 207.182 206.506 234.27 252.261 205.643 199.163 197.264 192.193 260.363 204.644 195.922 189.067 183.146 181.34 178.808 178
threshold=1.5000000000000002 4802.5000000000009 136.69342803955081 51.13250923156739 934.50000000000011 3.5000000000000004 51.152435302734382 71.388545989990249 3211.5000000000005 1.0000000180025095e-35 1.5000000000000002 34490.500000000007 2083.5000000000005 463.55793762207037 5.5000000000000009 71.502670288085952 65.000000000000014 462.50000000000006 43.500000000000007 1.0000000180025095e-35 1.0000000180025095e-35 1.0000000180025095e-35 34912.000000000007 2269.5000000000005 4.5000000000000009 71.451091766357436 1.0000000180025095e-35 11230.500000000002 5085.5000000000009 3487.0000000000005 11.500000000000002 382.87396240234381 5.5000000000000009 48.500000000000007 1.5000000000000002 7.5000000000000009 385.37672424316412 1.0000000180025095e-35 1.5000000000000002 1.0000000180025095e-35 1.0000000180025095e-35 1.0000000180025095e-35 5.5000000000000009 265.22097778320318 56.500000000000007 71.49762344360353 1.5000000000000002 15.500000000000002 1.5000000000000002 1.0000000180025095e-35 2.5000000000000004 51.142387390136726 191.50000000000003 100.89888000488283 4.5000000000000009 1.0000000180025095e-35 1.0000000180025095e-35 1509.5000000000002 71.411636352539077 51.129846572875984 2.5000000000000004 2153.5000000000005
decision_type=2 2 2 2 2 2 2 2 2 2 2 2 2 2 2 2 2 2 2 2 2 2 2 2 2 2 2 2 2 2 2 2 2 2 2 2 2 2 2 2 2 2 2 2 2 2 2 2 2 2 2 2 2 2 2 2 2 2 2 2 2 2
left_child=2 8 6 9 7 28 12 -5 14 29 18 33 51 24 21 46 -17 -11 23 20 -14 -2 34 -6 50 -26 53 -20 47 38 -31 32 -19 -12 35 57 37 -30 39 -4 -38 45 -43 -23 -42 -21 -9 48 -3 -50 -10 52 -1 54 -8 -55 -56 -7 -53 -40 -37 -16
right_child=1 5 3 4 10 22 26 15 13 17 11 -13 19 -15 61 16 -18 31 27 41 -22 43 -24 -25 25 -27 -28 -29 36 30 -32 -33 -34 -35 -36 60 40 -39 59 -41 44 42 -44 -45 -46 -47 -48 -49 49 -51 -52 58 -54 55 56 -57 -58 -59 -60 -61 -62 -63
leaf_value=-0.038837026902825894 0.023386563809135924 0.0054012582283824526 -0.017498513792535603 -0.016582520291858499 -0.031137431686877999 0.082058316356598549 -0.022530027681513871 0.0070441360201021338 0.0015445211069888107 0.080860266173093054 0.0040758729685898311 -0.023175569193891944 -0.024652815267755271 0.044816154993214993 0.077244493907577455 -0.018097493795389736 0.094601057874544647 -0.032839561666308546 0.016591190010051479 -0.018019749098112985 0.074122121915138436 0.038074710358355163 -0.0034008509999898413 -0.0098923785393108029 0.041267264431736825 -0.0111134998709649 0.047698923377376676 -0.0078695666785859094 -0.011567417354207066 -0.010187930819932871 0.15100580118939549 0.015321017950973296 0.0052958555166424184 0.023969696787599817 0.045262694886730889 0.052467235032112237 -0.016263828432702802 0.061250599751072367 -0.0058313760837394816 -0.035427543183054945 0.04766411872108469 0.011507972967946336 0.16222693818163225 0.062597776495666543 -0.036487047596914755 0.0046728021886196939 0.035839952055384879 0.064602405553355405 0.020008888365512133 0.093770916251386824 0.061328742883150961 -0.047332752100667952 -0.0015816760949382308 -0.0018697133667988149 -0.021060751359296942 0.0860127068811464 -0.0035014721747643226 0.017148176604199459 -0.0089514393254331356 0.15232898134390471 0.019498572451074087 0.04189787737958843
leaf_weight=5917.411971449852 1461.316527530551 6784.8185510262847 3199.1487049460411 1225.5603742524981 2343.5347681045532 110.29137651622295 4294.0495628714561 721.95481965690851 2137.2959336936474 126.9880697503686 9015.2233266234398 1347.8119720742106 9900.9137901440263 1998.0439952015877 1437.3358446508646 632.87552842497826 82.065904915332794 933.78582713007927 1515.3259714916348 4179.3176598846912 77.106581099331379 1779.4531143158674 788.27395255118608 4190.6742553189397 1491.4264456629753 368.80313609540462 195.48448321223259 3516.3438864573836 3366.5198971033096 4407.8984643667936 24.949703723192215 1574.0325276851654 1381.0457275956869 1707.8147477433085 1666.230493247509 1194.6376993954182 293.09995760023594 109.72011738270521 1087.607965618372 3645.6671857237816 511.39221161603928 586.35379268974066 23.572685360908508 1855.6464950442314 83.009614899754524 1337.0840831026435 4766.221974119544 171.77198182046413 2071.2757452949882 118.36713992059231 149.24357989430428 396.88388194143772 378.45108237862587 4594.1246350705624 2060.4962011650205 62.210445210337639 6892.4118839874864 4814.5991996824741 1387.1934933960438 13.431206136941908 638.90084935724735 501.31899011135101
leaf_count=53713 7767 44788 25743 9083 17956 596 34637 4963 13072 819 63443 10602 85870 10390 6335 4648 574 7441 11001 35567 566 9376 5325 32901 7645 1997 1294 26588 24102 36219 191 11440 10179 11776 9112 6073 1932 781 8712 30648 3148 5000 201 8786 516 10661 29454 956 13254 688 837 3718 3020 33739 16763 417 53438 28975 11072 105 3483 2302
internal_value=-0.000112514 0.0233322 -0.00949263 -0.00287094 0.00263134 0.0143585 -0.0169238 0.0205024 0.0387921 -0.0132946 -0.00298841 0.00384807 -0.0230644 0.0260392 0.0499048 0.0278367 -0.00459401 0.00282924 -0.010122 -0.0183627 -0.0238528 0.0428718 0.026096 -0.01753 0.0169488 0.0308805 -0.00871447 -0.000493865 0.00634751 -0.0185245 -0.00911156 0.000180635 -0.0101253 0.00725398 0.0288563 0.024781 -0.00352943 -0.0091844 -0.0237667 -0.0270667 0.0185478 -0.00940881 0.0186047 0.050662 0.0357059 -0.0125202 0.0320618 0.0110592 0.00999902 0.0242008 0.00557197 -0.0324183 -0.0366006 -0.00934359 -0.012414 -0.000604568 -0.00755221 0.0186836 -0.0175981 -0.00322213 0.0410635 0.0682355
internal_weight=125646 35902.8 89743 47460 31065.4 22722.9 42283.1 7428.68 13179.9 16394.6 23636.7 12070.9 24184.3 6144.81 7035.07 6203.12 714.941 4015.85 11565.9 16104.3 9978.02 5096.42 9212.93 6534.21 4146.77 1860.23 18098.8 5031.67 13510 12378.7 4432.85 3888.86 2314.83 10723 8424.66 6758.43 4363.74 3476.24 7945.86 6844.82 887.502 6126.33 609.926 3635.1 594.402 5516.4 5488.18 9146.23 8974.46 2189.64 2286.54 8079.94 6295.86 17903.3 13247 4656.34 8952.91 4924.89 1784.08 1101.04 1833.54 1938.65
internal_count=916398 212236 704162 354486 222989 143729 349676 48722 68507 131497 174267 85821 209388 33941 34566 39639 5222 29879 88446 137865 86436 25929 53564 50857 23551 9642 140288 37589 90165 101618 36410 29060 17620 75219 48239 39127 30479 24883 65208 56391 5596 51429 5201 18162 3664 46228 34417 59686 58730 13942 13909 71523 56733 138994 104838 34156 70201 29571 14790 8817 9556 8637
is_linear=0
shrinkage=0.05


Tree=11
num_leaves=63
num_cat=0
split_feature=37 41 4 2 42 37 37 42 3 2 27 42 2 40 51 41 28 21 2 42 41 51 25 41 41 51 4 2 42 28 37 3 23 41 52 41 2 12 51 19 27 3 3 22 42 2 41 51 51 28 41 51 50 5 51 19 27 37 3 42 45 20
split_gain=9924.35 1748.89 1638.14 1172.56 1038.58 794.301 766.876 637.678 626.297 475.577 497.799 438.025 418.652 409.427 407.215 441.249 388.185 385.576 379.989 302.581 300.293 296.324 283.025 266.503 257.544 302.992 252.513 252.116 247.766 235.356 234.163 242.578 231.035 230.328 257.03 228.921 214.31 211.87 209.962 223.639 205.771 199.574 336.009 202.898 196.331 195.627 190.389 189.728 187.677 187.104 183.576 183.181 197.497 191.673 181.742 181.703 173.747 169.955 167.601 167.592 165.635 164.649
threshold=1.5000000000000002 4512.5000000000009 51.133224487304695 169.80266571044925 934.50000000000011 1.0000000180025095e-35 3.5000000000000004 3211.5000000000005 71.389335632324233 382.87396240234381 4.5000000000000009 3340.5000000000005 372.68426513671881 1.0000000180025095e-35 1.5000000000000002 11381.500000000002 4.5000000000000009 49.500000000000007 463.55793762207037 1644.5000000000002 512.50000000000011 2.5000000000000004 1.5000000000000002 34912.000000000007 48350.500000000007 1.5000000000000002 51.104833602905281 260.24266052246099 5085.5000000000009 4.5000000000000009 4.5000000000000009 71.451091766357436 4.5000000000000009 1056.5000000000002 1.0000000180025095e-35 43.500000000000007 138.60029602050784 2.5000000000000004 1.5000000000000002 7.5000000000000009 4.5000000000000009 71.446647644042983 71.402595520019545 59.500000000000007 102.50000000000001 113.0564422607422 1428.5000000000002 1.0000000180025095e-35 1.5000000000000002 8.5000000000000018 291.50000000000006 1.5000000000000002 1.0000000180025095e-35 15.500000000000002 2.5000000000000004 3.5000000000000004 12.500000000000002 11.500000000000002 71.371902465820327 4641.5000000000009 33.500000000000007 1.5000000000000002
decision_type=2 2 2 2 2 2 2 2 2 2 2 2 2 2 2 2 2 2 2 2 2 2 2 2 2 2 2 2 2 2 2 2 2 2 2 2 2 2 2 2 2 2 2 2 2 2 2 2 2 2 2 2 2 2 2 2 2 2 2 2 2 2
left_child=2 7 5 13 8 11 28 20 -5 10 -7 12 -1 14 22 21 44 24 30 54 -2 -16 46 36 25 -6 -14 -22 51 -24 37 60 -17 -12 -35 -18 49 -9 41 58 -28 42 -13 -43 -10 -30 -4 55 57 -8 -11 53 -53 -3 -19 -29 -47 -38 -40 -51 -32 -21
right_child=1 6 3 4 17 9 23 18 16 50 33 38 26 -15 15 32 35 19 -20 61 27 -23 29 -25 -26 -27 40 47 45 -31 31 -33 -34 34 -36 -37 48 -39 39 -41 -42 43 -44 -45 -46 56 -48 -49 -50 59 -52 52 -54 -55 -56 -57 -58 -59 -60 -61 -62 -63
leaf_value=-0.032390829050660278 0.066422213012016437 0.0055161100126179252 -0.023373462368400016 -0.013985815457289292 -0.010442784484889887 -0.033341493649337986 -0.011251589149728774 0.00027096521444053745 0.050722103949532388 0.10102359544127144 0.054364161425557993 -0.036330259412209687 -0.027906081635398247 0.044674702441272612 0.0081331950400899463 -0.029612927823382935 0.031181415609341796 0.028641094764528471 0.042664626208504426 0.025329150009713586 0.027481578036315298 -0.0078861308283633656 0.032123799575053673 -0.0032389914352336686 -0.030602718689752346 0.0036117215934647071 -0.014697826801286382 0.018997209447971661 -0.019521351976268309 -0.0090687269153501195 0.078758132523154292 -0.0081836378292893062 0.013417460521569858 -0.012693404819866231 0.018087434025243807 0.0617398566807634 0.022760061342163393 0.061283319255049019 0.016393457833100498 0.089206852986482357 0.021147393250648752 -0.039670613793470533 -0.00043982464265744832 0.047655022167479952 0.0042057245143835879 -0.0010426956724347764 -0.0095616570392327224 0.058743549234601539 0.045775251236107595 0.05304280144046767 0.016364298661299317 0.019458133827838061 0.082775745311710044 0.056917911848548178 0.0880490481217754 0.059980405348763012 0.035330245320126685 0.046864665509367819 -0.011943539522248673 0.0026880639765050479 0.03081981031347035 -0.0043531853658387793
leaf_weight=11576.47260543704 1556.3070600777864 6959.0562840253115 9683.2082767114043 1038.6522178798914 7548.9557008966804 1646.7409987896681 628.60712967067957 2013.8051581978798 257.61591295152903 61.941940002143383 180.7932158857584 1050.8711781129241 1226.2288813367486 329.5696079954505 5417.6191824153066 2164.1626511290669 2543.8684728145599 504.67928519099951 1950.6091505140066 706.81796940416098 2060.926125600934 6168.2055245563388 366.78463312238455 786.57690208405256 911.05956180393696 7784.8643650636077 843.56637758016586 771.88663269579411 1332.9370298609138 5172.6362010389566 210.1677048355341 350.92742815613747 361.35184911638498 2133.7828766033053 988.22745008766651 815.79619332402945 5114.7852380424738 148.11140212416649 583.32676449418068 53.928096085786819 753.08440088480711 1599.9385095238686 1705.777563303709 65.321629568934441 1673.9000478163362 2686.4794204011559 3374.1848100572824 2150.9426892101765 1564.6509881913662 311.77570363879204 1627.3572296127677 2147.1466964408755 126.38099266588688 181.30458937585354 172.21838530153036 417.80244940519333 368.99519795179367 856.18824535608292 4647.6340181902051 346.59910218417645 1233.8404544591904 1356.1699940487742
leaf_count=104175 7213 45705 81612 7691 58592 13728 4303 12267 1660 361 1305 9778 10983 2192 39838 17578 15267 3371 9918 4801 10668 45992 2937 5325 7409 54690 6628 3883 10211 40474 1073 1909 2728 16909 7440 4683 28971 803 5169 444 5532 13840 14272 511 11212 18089 27872 9786 8249 1813 11696 13538 699 978 1084 1908 2417 4187 39864 2149 6174 9844
internal_value=-0.000113999 0.0219305 -0.00909034 -0.00416847 0.00392822 -0.0184296 0.0137873 0.0367377 0.0214589 -0.00311257 -0.0109303 -0.0226464 -0.0281813 -0.0103721 -0.0109335 -0.00452661 0.0284232 -0.0019209 0.0246225 0.0154127 0.0469989 -0.000395096 -0.0157925 0.0246294 -0.00484825 -0.00330857 -0.0108913 0.0413463 0.00623287 -0.00631471 0.0156857 0.029009 -0.0234418 0.000277221 -0.00293683 0.0386824 0.0271145 0.00458264 -0.0144255 -0.00768776 0.00222235 -0.0224604 -0.0141627 -0.0361128 0.0105248 -0.00357613 -0.0198094 0.049846 0.030334 0.00821893 0.0197575 0.0108049 0.0231518 0.00686019 0.0442906 0.0335807 0.00340044 0.0262528 -0.00877092 0.0267538 0.0380447 0.00585319
internal_weight=125374 36276.8 89097.3 58352.3 25314.6 30745 23411.5 12865.3 6329.83 6638.84 4949.54 24106.2 14399.4 33037.7 32708.2 14111.3 5291.18 18984.8 5907.46 2739.89 6957.86 11585.8 18596.8 9609.18 16244.9 15333.8 2822.88 5401.56 13802.3 5539.42 3956.85 1794.94 2525.51 3302.8 3122.01 3359.66 8822.61 2161.92 9706.8 5284.89 1596.65 4421.91 2756.65 1665.26 1931.52 4388.41 13057.4 3340.63 7535.62 1286.98 1689.3 9413.89 2273.53 7140.36 676.898 1189.69 3055.47 5970.97 5230.96 658.375 1444.01 2062.99
internal_count=916398 212236 704162 441527 180304 262635 146634 65602 40513 51439 39382 211196 127318 261223 259031 106136 32822 139791 32144 19100 33458 85830 152895 54997 120691 113282 23143 26245 91637 43411 22226 9156 20306 25654 24349 19950 49672 13070 83878 45477 12160 38401 24050 14351 12872 30717 109484 15577 41407 8265 12057 60920 14237 46683 4455 5791 20506 33158 45033 3962 7247 14645
is_linear=0
shrinkage=0.05


Tree=12
num_leaves=63
num_cat=0
split_feature=37 41 4 2 2 2 3 27 4 11 52 21 42 4 3 28 3 3 21 3 2 3 42 37 57 2 3 4 2 2 51 41 9 29 41 13 2 51 2 45 3 40 14 4 41 42 39 6 4 28 41 51 41 4 22 3 2 44 3 21 37 4
split_gain=8917.79 1566.88 1530.27 865.63 759.531 744.208 585.015 566.391 504.57 485.878 468.517 455.2 400.039 378.905 523.622 392.819 364.345 443.523 360.876 342.02 332.178 333.015 314.939 291.95 282.329 272.935 271.76 419.314 271.508 251.33 243.438 296.37 236.91 231.268 220.695 215.339 213.984 212.959 212.448 206.351 206.312 210.538 203.779 203.504 202.138 338.66 201.833 201.83 200.78 260.142 199.458 199.035 185.785 185.542 191.895 184.62 181.268 180.659 179.467 198.154 171.148 296.358
threshold=1.5000000000000002 11513.500000000002 51.149406433105476 240.26533508300784 217.9795837402344 186.20582580566409 71.400920867919936 2.5000000000000004 51.127952575683601 1.0000000180025095e-35 1.0000000180025095e-35 42.500000000000007 1459.5000000000002 51.120309829711921 71.409271240234389 5.5000000000000009 71.442096710205092 71.582408905029311 21.500000000000004 71.432331085205092 463.55793762207037 71.349662780761733 3238.5000000000005 6.5000000000000009 1.5000000000000002 96.285667419433608 71.405735015869155 51.163625717163093 908.11419677734386 1081.7764282226565 1.5000000000000002 31603.000000000004 1.0000000180025095e-35 -17.949999809265133 191.50000000000003 1.5000000000000002 680.35739135742199 4.5000000000000009 502.23588562011724 79.500000000000014 71.268035888671889 1.0000000180025095e-35 16.500000000000004 51.117004394531257 10944.500000000002 5060.5000000000009 1.0000000180025095e-35 3.5000000000000004 51.149808883666999 16.500000000000004 16789.500000000004 3.5000000000000004 26683.500000000004 51.163343429565437 63.500000000000007 71.42258453369142 660.04699707031261 9.5000000000000018 71.390922546386733 47.500000000000007 1.0000000180025095e-35 51.117530822753913
decision_type=2 2 2 2 2 2 2 2 2 2 2 2 2 2 2 2 2 2 2 2 2 2 2 2 2 2 2 2 2 2 2 2 2 2 2 2 2 2 2 2 2 2 2 2 2 2 2 2 2 2 2 2 2 2 2 2 2 2 2 2 2 2
left_child=2 4 3 6 22 18 40 24 19 10 11 29 26 16 -15 28 46 -18 44 34 23 -22 32 35 33 -20 51 -28 -16 -6 36 -32 37 -7 -8 -3 -26 57 -17 -19 60 -42 -12 -21 45 -4 50 -11 49 -37 -5 -9 -35 -27 -55 -50 -13 -2 -23 -60 61 -1
right_child=1 20 5 13 9 7 8 12 -10 47 42 56 -14 14 15 38 17 39 25 43 21 58 -24 -25 30 53 27 -29 -30 -31 31 -33 -34 52 -36 48 -38 -39 -40 -41 41 -43 -44 -45 -46 -47 -48 -49 55 -51 -52 -53 -54 54 -56 -57 -58 -59 59 -61 -62 -63
leaf_value=0.072271311204703093 0.045339569463716339 -0.025804701442280305 -0.014803256724940997 -0.011469416305816126 0.0087812637175009867 -0.016768335140016015 -0.020062867723843809 -0.010791640211691059 -0.0092533728661831627 0.064655551147286744 0.047116153995071096 0.041993865878744457 0.0061972298892499353 -0.019103417264325847 -0.0081049141966119918 0.015458576966185578 -0.036189038498626883 0.022258755149554672 -0.0080100827079750223 -0.040362508611495665 -0.021323426074820746 0.06923203442369312 0.006755737982444005 0.030313788515425474 -0.022423324490315553 -0.010544047226443261 0.012420519593202188 0.051445172649228724 0.038855943511212354 0.037578670015930432 0.0064892463422052049 -0.042534014245142901 0.060727029093140698 0.03856100386577483 0.0036546367307000675 -0.0084925414110282923 0.0078802682844543361 0.11795585787964427 0.054124974445107013 0.17468165628571639 -0.037495424025631267 0.070643932471863777 0.014003169134061525 -0.022029409892843237 -0.028262822789522753 0.011967451503102621 0.1049154018017467 0.0020926967040390573 -0.00077989136217467188 0.051448923715625199 0.017755011660048638 0.10955373801880788 -0.040013440478011038 0.013838990027904256 -0.016709801826954786 0.016666097755297735 -0.027279428619395675 0.014111654640511393 0.017492264228305451 0.055192347228175988 -0.054756656625823442 -0.015730680530167764
leaf_weight=126.69623430818319 571.83259069919586 664.01154312491417 7656.4605304077268 3958.801679238677 3758.1406270414591 322.97668209671974 4581.2402679547668 516.1244004368782 12258.194782912731 1674.7966740429401 4650.9170284718275 2837.4900338351727 4131.844881400466 2413.6504554376006 3239.4517353922129 2981.7775017023087 2240.3557491675019 159.40447586029768 7950.1958866193891 3306.3612322509289 361.00970682501793 255.9314588457346 4121.5810674205422 964.93702997267246 2623.4047415405512 1350.2653186917305 1167.4174065440893 1686.6008181869984 335.08283494412899 945.68552431464195 3734.5747292116284 331.01216343045235 454.06754711270332 876.40430417656898 1245.8941179215908 3629.0354962795973 745.6452082619071 52.024094417691231 399.93892884254456 21.225750580430031 5533.4597756490111 40.960988134145737 521.93353296816349 2835.1571795195341 1993.9072007164359 1392.8491580039263 35.529593572020531 139.99567687511444 2684.0455602034926 185.5424177646637 680.11403188854456 31.784781575202942 78.233495876193047 4436.0485732778907 577.08167044818401 3479.6767428964376 94.436014756560326 2399.5313619375229 1738.6873082816601 434.08883182704449 133.45836652815342 345.31995367258787
leaf_count=1121 3140 4818 59685 32488 20331 2313 41676 3409 98444 7846 22863 14350 29487 20517 24027 20398 19547 1127 63218 31711 2411 1435 25461 5209 20552 9585 6825 9292 2300 5023 25481 2883 2294 6284 9721 24766 5551 234 2580 156 55128 245 2723 25912 17167 10558 187 767 17907 1128 5060 206 667 30304 4070 23177 516 13344 10075 2418 1277 3003
internal_value=-0.000115163 0.020634 -0.00870382 -0.0148984 0.0289575 -0.00172369 -0.019898 0.00662976 -0.0163891 0.0356214 0.0321668 0.0242679 0.0166645 -0.00566233 0.000938931 0.00790187 -0.0143742 -0.0300977 -0.00707596 -0.0236906 0.00778048 0.0232566 0.0161187 0.0040525 -0.00205219 -0.00183528 0.0293499 0.035532 -0.0036546 0.0146046 -0.0057862 0.00245053 0.0271904 0.0196144 -0.0149931 0.00165827 -0.0157147 0.0220618 0.0201046 0.0443925 -0.0336294 -0.0366382 0.0437918 -0.0319241 -0.0138647 -0.0106784 -0.00620717 0.0598484 0.00349782 -0.00551344 -0.0071703 -0.00288271 0.0319468 0.00587953 0.0103092 0.00907462 0.03972 0.0201875 0.0299133 0.0251336 -0.00585516 0.00840032
internal_weight=125094 36619.4 88474.9 46872.1 22222.4 41602.8 30406.7 16246 24226.8 14623.4 12808.6 7635.75 7533.77 16465.3 9369.9 6956.25 7095.43 2420.99 25356.8 11968.7 14397 2789.72 7599.04 11607.2 8712.25 14313.6 3401.93 2854.02 3574.53 4703.83 7434.64 4065.59 3477.46 1277.61 5827.13 10642.3 3369.05 3023.39 3381.72 180.63 6179.9 5574.42 5172.85 6141.52 11043.2 9049.31 4674.45 1814.79 9978.3 3814.58 4638.92 547.909 954.638 6363.4 5013.13 6163.72 2931.93 2971.36 2428.71 2172.78 605.475 472.016
internal_count=916398 212236 704162 396625 118892 307537 268238 112950 207464 74419 65806 40220 49219 128387 69822 49305 58565 20830 194587 109020 93344 16339 44473 77005 63731 107177 19732 16117 26327 25354 54467 28364 19012 9264 51397 71796 26103 16718 22978 1283 60774 55373 25586 57623 87410 70243 37735 8613 66978 25894 37548 3615 6951 43959 34374 41084 14866 16484 13928 12493 5401 4124
is_linear=0
shrinkage=0.05


Tree=13
num_leaves=63
num_cat=0
split_feature=37 2 41 4 42 3 37 4 42 37 42 21 3 51 41 52 42 37 37 42 42 51 1 40 2 13 37 51 2 29 2 27 20 20 5 28 42 4 20 40 17 19 20 4 3 3 3 20 37 60 29 2 37 42 12 22 15 51 5 4 23 28
split_gain=8016.11 1423.86 1411.85 836.035 970.167 785.008 754.195 728.892 571.929 407.376 407.111 399.782 333.091 304.04 331.257 286.891 276.852 274.895 270.922 270.517 266.067 263.663 258.623 254.752 248.465 397.108 243.854 234.486 383.992 233.242 231.411 289.263 225.031 209.201 206.33 209.474 204.114 202.194 201.934 201.872 198.754 203.862 198.1 197.18 194.961 192.963 187.509 187.426 248.743 183.513 278.656 175.673 175.624 171.708 166.836 165.75 307.145 165.408 172.488 161.826 258.786 229.098
threshold=1.5000000000000002 136.69342803955081 3577.0000000000005 51.128828048706062 1014.5000000000001 71.388545989990249 3.5000000000000004 51.152435302734382 2729.5000000000005 1.0000000180025095e-35 2083.5000000000005 49.500000000000007 71.498622894287124 1.5000000000000002 11852.500000000002 1.0000000180025095e-35 1564.0000000000002 4.5000000000000009 12.500000000000002 1618.5000000000002 3539.5000000000005 11.500000000000002 65.000000000000014 1.0000000180025095e-35 452.10252380371099 1.5000000000000002 1.0000000180025095e-35 1.0000000180025095e-35 436.00836181640631 -10.249999999999998 382.87396240234381 7.5000000000000009 1.5000000000000002 2.5000000000000004 1.0000000180025095e-35 11.500000000000002 2269.5000000000005 51.178829193115241 5.5000000000000009 1.0000000180025095e-35 1.0000000180025095e-35 5.5000000000000009 3.5000000000000004 51.10353088378907 71.49762344360353 71.400920867919936 71.400329589843764 2.5000000000000004 2.5000000000000004 2.5000000000000004 3.3500000238418584 70.799030303955092 1.0000000180025095e-35 5801.5000000000009 5.5000000000000009 4.5000000000000009 1.0000000180025095e-35 1.5000000000000002 1.0000000180025095e-35 51.152980804443366 6.5000000000000009 11.500000000000002
decision_type=2 2 2 2 2 2 2 2 2 2 2 2 2 2 2 2 2 2 2 2 2 2 2 2 2 2 2 2 2 2 2 2 2 2 2 2 2 2 2 2 2 2 2 2 2 2 2 2 2 2 2 2 2 2 2 2 2 2 2 2 2 2
left_child=1 7 8 9 5 37 16 10 17 20 43 13 26 52 -15 23 47 57 -10 45 42 38 -14 -12 25 -8 -7 53 32 -21 31 -11 -29 -30 35 -26 -33 -5 -22 51 44 -42 -3 -1 -17 -13 -45 48 -4 50 -32 55 -6 -18 -48 -9 -57 58 -2 61 -61 -27
right_child=2 3 6 4 11 12 24 39 18 30 15 19 22 14 -16 40 27 -19 -20 29 21 -23 -24 -25 34 59 -28 28 33 -31 49 36 -34 -35 -36 -37 -38 -39 -40 -41 41 -43 -44 46 -46 -47 54 -49 -50 -51 -52 -53 -54 -55 -56 56 -58 -59 -60 60 -62 -63
leaf_value=-0.048910238295300265 0.049128687472486332 -0.028384289293847665 -0.013149376246250314 -0.04221816823827635 -0.018354378613945784 0.021726715031708276 -0.054206542732953902 -0.024345657482355607 0.019446632169006231 -0.030920792086706742 -0.022510762162481518 -0.052673940081843798 -0.013558615955071294 0.0045661706648946398 -0.016737224124350452 -0.016243600337462027 -0.0036214925823658916 0.061470211709256053 0.050581854796692229 -0.025151998793230348 -0.00957590320446371 0.13562352383649434 0.062365243311223451 0.062953118991824694 0.025916510299958808 0.0024576826702552477 0.045217489393927009 -0.0074507775609495164 0.024716679120618951 0.0094756969191043348 0.070244739738358292 0.047859320432347946 0.0093633253449467071 0.084073003627377463 0.045605508974924901 -0.043063789933908476 -0.0037164395890615996 -0.0026637277840937251 0.091575460042467097 0.041058130272616906 0.012547065417381707 0.14453698868658266 -0.0077458589622562968 -0.044874105018053494 0.0059013844019655511 0.040463069722402809 -0.023524000923750926 0.051488393899252083 0.07198570848998842 0.0013688694895492093 0.0046949909839801816 -0.0036524170734221237 -0.0047451306420273733 -0.039882821199809827 0.085861371320477928 0.0065844345479559897 -0.018177277699651797 0.057726359224391212 0.021734132699309974 0.032423522259908633 0.0058294439194122236 0.039385148630434297
